<?xml version="1.0"?>
<opencv_storage>
<my_nn type_id="opencv-ml-ann-mlp">
  <layer_sizes type_id="opencv-matrix">
    <rows>1</rows>
    <cols>4</cols>
    <dt>i</dt>
    <data>
      16 100 100 10</data></layer_sizes>
  <activation_function>SIGMOID_SYM</activation_function>
  <f_param1>6.6666666666666663e-01</f_param1>
  <f_param2>1.7159000000000000e+00</f_param2>
  <min_val>-9.4999999999999996e-01</min_val>
  <max_val>9.4999999999999996e-01</max_val>
  <min_val1>-9.7999999999999998e-01</min_val1>
  <max_val1>9.7999999999999998e-01</max_val1>
  <training_params>
    <train_method>BACKPROP</train_method>
    <dw_scale>1.0000000000000000e-03</dw_scale>
    <moment_scale>0.</moment_scale>
    <term_criteria><epsilon>1.1920928955078125e-07</epsilon>
      <iterations>300</iterations></term_criteria></training_params>
  <input_scale>
    9.9597485916577994e-02 -2.3173822331045733e+00
    8.1875254877227044e-01 -6.7192458409882375e-02
    4.9876337957696679e-02 -2.6499647036490517e+00
    4.0882153073369920e-01 -4.0812566429840778e+01
    1.5803820621276419e-02 -3.6802726957419236e+00
    1.7842724327464562e-01 -3.4763484176002385e-01
    1.2655083641907855e-01 3.2387782451326486e-01 1.5995022502709902e-01
    -2.3934193246456186e+00 2.5745350953478552e-01
    -7.9591478585966673e+00 2.6024683699441459e-02
    -2.2006282690530743e-01 9.0280709544101723e-02
    1.6656653706161018e-01 7.9564103009417714e-02
    -6.5053932247821772e-02 6.6205387951484562e-02
    -2.4880347010095902e+00 9.8713989750801617e-02
    -1.6562347216547870e+00 5.5215862573057176e-02
    -3.1724785720927042e+00 8.2499702300474542e-02
    -2.5098465663387528e+00</input_scale>
  <output_scale>
    5.2631578947368418e-01 4.9999999999999994e-01 5.2631578947368418e-01
    4.9999999999999994e-01 5.2631578947368418e-01 4.9999999999999994e-01
    5.2631578947368418e-01 4.9999999999999994e-01 5.2631578947368418e-01
    4.9999999999999994e-01 5.2631578947368418e-01 4.9999999999999994e-01
    5.2631578947368418e-01 4.9999999999999994e-01 5.2631578947368418e-01
    4.9999999999999994e-01 5.2631578947368418e-01 4.9999999999999994e-01
    5.2631578947368418e-01 4.9999999999999994e-01</output_scale>
  <inv_output_scale>
    1.8999999999999999e+00 -9.4999999999999996e-01
    1.8999999999999999e+00 -9.4999999999999996e-01
    1.8999999999999999e+00 -9.4999999999999996e-01
    1.8999999999999999e+00 -9.4999999999999996e-01
    1.8999999999999999e+00 -9.4999999999999996e-01
    1.8999999999999999e+00 -9.4999999999999996e-01
    1.8999999999999999e+00 -9.4999999999999996e-01
    1.8999999999999999e+00 -9.4999999999999996e-01
    1.8999999999999999e+00 -9.4999999999999996e-01
    1.8999999999999999e+00 -9.4999999999999996e-01</inv_output_scale>
  <weights>
    <_>
      -1.0808578462185989e-01 2.7592444439322662e-02
      3.3814626749638463e-02 1.9178345993622906e-02
      1.0832639412812149e-01 8.1975142913490676e-03
      7.6649867157622342e-02 -6.1999984534222063e-02
      3.3571579465109073e-02 -1.5181231471671944e-01
      -1.0482192552412194e-01 2.6290499189228059e-02
      1.0435280801798387e-01 2.1286444872989380e-02
      3.1723023091156405e-02 -1.4432522934988326e-01
      4.5219616542801093e-02 -1.4108705150318321e-01
      1.2286797749163160e-01 2.9597171093605219e-02
      -5.8983836544903856e-03 1.0246263095636074e-01
      1.5996360942958981e-01 -5.6541700952008429e-03
      8.4813619947324975e-02 -4.5200899232860206e-02
      1.3249100104247816e-01 9.8734849100744496e-02
      1.4231099946516454e-02 -1.0720866057775755e-01
      -2.5237397503789144e-02 -8.0997854960363144e-02
      3.4653630847193688e-02 5.7898235479410587e-02
      5.2376561832531490e-03 -7.9371771390546297e-02
      6.3991816816939870e-02 -1.2395980404394469e-01
      1.0748856185920286e-01 -7.5452388162991713e-02
      -1.0468291787680516e-02 6.5653973323067091e-02
      -7.3743896094677880e-02 2.7550140511819907e-02
      7.9173224161679337e-02 -8.1935903851751410e-02
      2.4888913557445790e-02 -2.9790788227740679e-02
      -8.2665546375191704e-02 3.7303345622441912e-02
      -2.4238417348597812e-02 -9.8331023651065150e-02
      4.8075969570638671e-02 7.1633510554427945e-02
      -1.8519153437071803e-01 3.2889529963485535e-02
      -3.6244661245604666e-02 -7.1419829731426229e-02
      -1.3551667161238792e-01 -3.5192808831523190e-02
      8.7968821014554249e-02 -1.0921037320240856e-01
      2.1882473152360134e-03 5.7420025699231957e-02
      -1.9107105540753358e-02 -1.0970300450777787e-01
      5.0492506245750281e-02 5.1582486881304838e-02
      -6.8160070303487336e-02 1.1925779443849518e-01
      -8.9393797886863594e-02 5.5274204080987953e-02
      1.3582831655153066e-01 -5.2758244303606809e-02
      -7.9387471494648212e-02 -8.3810767415069973e-02
      1.1029786976843686e-01 -4.7996977992540206e-02
      1.1227663149192615e-01 -1.6962523619785186e-01
      -4.0136801105335213e-02 -3.1571835121097853e-02
      6.7597826973947825e-02 -2.2766621055044872e-02
      -5.3350629876843775e-02 3.0218330445660513e-01
      -4.1977097017962345e-02 1.3438296703761239e-02
      1.0367498965896678e-01 -1.8311038376277236e-01
      -3.0014330211295938e-02 1.1841081909483027e-01
      -4.2459691191441711e-02 -9.6285215893861603e-02
      1.8867715266161406e-01 -6.1578711844728531e-02
      5.1135899187917035e-02 -1.2090566791308065e-01
      -6.4967641014194458e-02 -8.2929363704608822e-02
      2.0279954833961118e-02 9.5760327765505804e-02
      1.0717048731081955e-01 -5.7459829365070915e-02
      -1.7410527151946815e-02 5.4606633673773143e-02
      -5.5181279388296485e-02 6.1586588426607497e-02
      7.8977374064416045e-02 -5.0122393841577399e-02
      -1.0346645098433196e-01 -3.4019832223333976e-02
      -2.4593526527857616e-02 1.0237242312852068e-01
      1.1519845408883819e-01 6.1426693311342033e-02
      1.2466441566478682e-01 -8.2185208488918221e-02
      5.6421349824022492e-02 -8.6850516771126568e-02
      5.6460538658868971e-02 6.7556551876058080e-02
      1.6781399176060034e-02 9.1632863771584847e-03
      -2.1642382136136173e-02 1.1538516699395119e-02
      4.5079783856043130e-02 -1.4883096293367684e-01
      9.6010555926785146e-02 1.1656209578191077e-03
      -1.2841300847439588e-01 -8.6298117526795157e-02
      6.4462448044197554e-02 8.4801794466127633e-03
      -9.1909425424976151e-03 -1.3718576969906374e-01
      -7.7624790875692688e-03 8.4378542191080930e-02
      1.4239362654102172e-02 -3.2853184502519138e-02
      8.1328701650601617e-02 -1.1285346703488559e-01
      -6.3344049508364431e-04 -2.3393033432916158e-02
      -1.8699441722513108e-01 -1.0300914580819087e-01
      -1.6998399231669847e-02 6.1163762330714203e-02
      -6.5682460620702335e-02 -1.1452335750819466e-01
      4.5006957505559081e-02 1.0617706302810753e-01
      2.3586619444304530e-02 -1.0888806529981652e-01
      -4.9584774809253128e-03 -9.1044888505623409e-02
      -5.2970321813722097e-02 1.5110703647149034e-02
      2.1252827374529545e-02 2.7343283369018315e-02
      -5.7047786836515693e-02 -1.5683804226199284e-02
      -8.7003730841299948e-02 1.2763874701386627e-01
      8.5967008616661594e-02 5.7542909593944393e-03
      1.4913985326727585e-02 -9.4553481449138346e-02
      9.0414946308714744e-02 1.1826186829276965e-02
      -1.0882814649309205e-01 3.5656859022478921e-02
      2.3591620702446466e-02 -1.2283552736502919e-01
      3.6715508545484152e-02 5.1298894901361795e-02
      -3.6898311260482701e-02 9.5813537663314477e-02
      -8.6848212364881369e-02 -3.2370367969718324e-02
      4.5019068719142102e-02 -1.3568295047496110e-03
      -8.1614154385209109e-02 2.0887547730459172e-02
      -1.3545319852790721e-01 -3.8202338834871938e-02
      1.3739388068039879e-01 2.2001986334676701e-02
      1.3017358807019674e-01 -3.5125696339740942e-02
      4.4206748916295106e-02 -1.1863438017521716e-01
      -1.1625556839764854e-01 4.0974375671100821e-02
      -1.4029117722701756e-01 -1.7862619018668330e-02
      7.7138891723040337e-02 -1.1136617816904747e-01
      -7.3084983263921044e-02 -2.1618376347054685e-02
      1.2933554421409683e-02 1.0681682760719353e-01
      -8.4290770256448683e-02 -3.8530691214871654e-02
      -1.9687992633808687e-01 -4.9037103100597737e-02
      -3.3003891551182475e-02 -9.1372949446399399e-02
      -6.0917098627320664e-02 5.0241303629453241e-02
      1.5315745895889185e-01 4.6504938783990604e-02
      3.1840713671592237e-03 -7.7616314460992861e-02
      6.6715596081867501e-02 7.1711729869469013e-02
      7.1961948683638491e-02 2.9538960482323108e-02
      5.8213079127824897e-02 -1.3702146534520629e-01
      6.3816882105865239e-02 -1.0916921627766799e-01
      -1.6994766032669434e-01 -1.7295902279392503e-01
      -1.6973599208801532e-01 1.6127344333916577e-01
      -1.1266450660731067e-01 -5.2256051755600087e-02
      1.0320939537620619e-01 -8.9803280527105345e-02
      7.7644921477354939e-02 -3.9689027088348983e-02
      -1.2679073560922580e-01 1.4363756667936631e-01
      -3.2364283331631580e-03 -8.6201348087743407e-02
      8.1447510809403462e-02 2.3719802959879639e-02
      -2.4619624161194320e-01 1.6377449237917105e-01
      6.5512611797258188e-02 2.6246185316601979e-02
      -2.1943888517440158e-03 -1.8483802260708146e-01
      -7.0238151424974110e-02 1.4315149817252232e-01
      -1.7574042179452332e-01 1.8648443037374435e-01
      1.2120577526579805e-02 8.8485814985430761e-02
      3.5005787392640736e-02 -4.9720732426768097e-02
      -4.1602398849224044e-02 2.3901140410115288e-03
      9.0286478084210132e-03 -6.6123327475244936e-02
      -9.0577400575066760e-02 -4.7448686260024200e-02
      -2.6943385040942378e-02 -1.6654352763533322e-03
      -6.1445497335446721e-03 -5.3618941923414196e-02
      -1.6661055159173457e-02 7.7658494329801139e-02
      1.4325435775998801e-02 1.0979757979760509e-01
      -5.8763873534479268e-02 -4.0771741762437100e-02
      1.9485978209727206e-01 6.9167328246815540e-03
      1.2039869185473244e-01 -4.2967355630261203e-02
      1.0138928176866786e-01 -1.5367049988611129e-02
      1.8802404769612702e-01 -4.0495299634268130e-02
      -1.4049605176389007e-01 9.5619541640159129e-03
      -9.5189675036079960e-02 5.9183154839811923e-02
      1.2166957335429669e-01 -1.8588575216134429e-01
      7.0971635224073390e-02 -1.3510894300053100e-01
      -1.4639540811990501e-01 -2.2894775967633016e-01
      -8.1669694158103698e-02 -1.4258915595947261e-01
      -1.6160963387063523e-01 -4.5694679438505990e-02
      8.8895379658539941e-02 2.3778410329760618e-02
      -5.3629267280399989e-02 -6.8519101271319244e-02
      -7.2857381392993942e-02 -3.6974121754626756e-02
      8.2668431716908561e-02 1.8510855973453802e-01
      -9.3833016538389796e-02 7.6138990225415565e-02
      -1.7234703812225617e-02 1.0599499881055965e-01
      1.0421368681316667e-01 -1.0063391199360734e-01
      -1.5428453322351944e-02 -8.2612549412734576e-02
      1.1611787576466090e-01 -8.1425068067678005e-02
      -4.9937339699594442e-02 4.5579334133114692e-02
      1.6603181663467491e-02 -7.3955153578514329e-02
      -9.2068546056393710e-02 -4.9195085327209905e-02
      7.2199382696882503e-02 6.5578601782899065e-02
      -1.2287198292514960e-01 -2.2424391373719356e-02
      -1.6848715116542921e-02 3.1007819829913200e-02
      -7.5152057585225390e-02 1.1787210281193446e-01
      -1.0638678056684747e-01 6.2285946922188903e-02
      5.5775600400364195e-02 -1.1774647271426095e-01
      4.6445492111179487e-02 1.2534335258379301e-01
      -1.8968573385886905e-02 1.1175095657100072e-01
      7.5291438172127564e-02 -6.9354957320147681e-02
      5.5638436976979518e-02 -1.0869403153340360e-01
      -1.1790693960966929e-02 -2.8289398578746305e-02
      1.0321981686825833e-01 7.6860534982532355e-02
      1.5194623910341756e-01 7.2023268059855927e-02
      -9.6583247565861285e-02 -6.8174853106976199e-02
      -1.2286089175688179e-01 2.2858339461610790e-02
      6.7823650340234475e-03 -7.8008315542288625e-02
      6.7998746734529117e-02 1.1718208237748813e-01
      9.5729520014929001e-02 1.6635875127004578e-03
      8.9412208285396130e-02 4.9736406948444396e-02
      6.1705501597360178e-02 9.5491864714134553e-02
      1.7667798307353315e-02 -9.3895613584658824e-02
      -7.6647228791318203e-02 -4.7372365339758589e-02
      -8.5192987250914301e-02 -1.2698723134486614e-01
      4.3478819398971746e-02 -8.3467947593203307e-02
      -4.3897284517874384e-02 -1.4950347113756249e-01
      1.6725226456927192e-01 -1.0262390473463116e-01
      5.4987645803820963e-02 1.1442606976924680e-01
      2.1462657533210219e-02 1.0835240486098208e-01
      1.2583025928575198e-01 5.6076610615885279e-02
      7.1688473509161840e-02 -4.2378896037786877e-02
      -3.7061425030089593e-02 7.6771289005745647e-02
      6.1795005878626789e-02 -1.0350840669089317e-01
      -5.5555932755073451e-02 4.9965614083697998e-02
      6.7907742459217740e-02 5.2617442104902892e-02
      -4.3454015407400515e-02 5.6211564739314178e-02
      8.7352741317831856e-02 3.1442014537695448e-02
      5.7602263397312878e-02 5.4492303062056678e-02
      2.8584046836539905e-02 -4.8735449204574510e-02
      -7.6765209402724771e-02 -1.8888247731038230e-02
      -2.2346181986579196e-02 4.3083170224488126e-02
      2.9319891305166504e-02 2.1608199238973298e-02
      -8.5063480666370844e-02 7.2894738848792773e-02
      1.1559144203465087e-01 -5.1377021274304116e-02
      -6.5099912976726709e-02 -1.2925761129810581e-01
      -7.8431082781705380e-02 1.9914931381271675e-01
      -4.3664432264268672e-02 1.0076250300385445e-01
      4.9794172566231559e-02 -1.6096258024548421e-01
      -1.2497947001385491e-01 -5.4755723753082089e-02
      -3.6015968576105152e-02 1.1811510151827831e-01
      -1.0053134670410009e-01 -6.1778160044792148e-02
      -2.5581190023472561e-02 9.4192371275736361e-02
      1.4268406676383683e-01 -2.1816478723307861e-01
      -2.1029881387014671e-03 1.8714932274643314e-01
      5.9708763756344742e-02 1.0644540546581574e-01
      1.4349819001367012e-01 -1.8834657423436055e-01
      -5.9186245977873309e-02 -5.7679922332039779e-02
      8.7203394490177541e-02 -4.0162968907639469e-03
      -1.6347138208942613e-01 -8.5101860085994745e-04
      2.1788726962208696e-02 1.9695672356446450e-01
      3.5031826401181139e-02 3.2758056942612081e-03
      1.4766396171776888e-01 6.6272911973685886e-02
      -7.1495085401946296e-02 -1.4867937984162885e-01
      -2.2677976098028249e-01 -2.5190729372203263e-02
      2.0328012585907121e-01 -8.3104465498793148e-02
      -7.0900010943554748e-02 1.2264311362764496e-01
      -4.9682202179128249e-02 -1.2652727057608021e-01
      5.9373663291796955e-02 -1.6005715511278936e-02
      1.3557158143763956e-01 3.5590055348177413e-02
      -2.6516635640163086e-02 1.5286038048181982e-01
      2.4570599791586066e-02 7.1311534192249476e-02
      2.5712762026983571e-01 4.2511563897744187e-02
      2.0755182447504442e-01 -1.5639647109025034e-01
      -1.4234465247802327e-02 -5.0379219440947294e-03
      5.3151614566404812e-02 1.5486835180246014e-01
      -9.8300705892076970e-02 -1.3394050681770783e-01
      -9.2399111631904202e-02 1.8322347213073520e-01
      6.0126516067233966e-02 -2.0363662084023396e-01
      1.2431864856492927e-01 -1.4310469932664888e-01
      -1.3690313125492171e-01 -1.6097283145415314e-01
      6.6385185714771991e-02 7.4808149617172928e-02
      6.1959275175630192e-02 1.1522896901551652e-01
      1.5409707542585688e-01 7.4264658843710890e-02
      -7.8071515537899164e-02 1.1756471921778038e-01
      6.6999448483191448e-02 -4.6100119026013221e-02
      -1.9769680047822052e-01 1.4307448977688852e-01
      9.4679528494025778e-02 2.4200805026707786e-01
      8.3474457566563576e-02 5.5334594115997997e-02
      -2.0925778831094165e-02 2.1614055755002658e-02
      -1.5510545248983509e-01 1.8242762107957024e-02
      1.1536334778626911e-01 1.0124251857265076e-01
      -1.9354158097561949e-01 -1.7779044245078712e-01
      -1.7672148997959244e-01 1.5576907948566662e-02
      1.8569023825666824e-02 1.2737875770404627e-01
      6.6217175333159989e-02 1.0757348852704211e-02
      1.1611872733154398e-01 8.6193192022896117e-02
      6.4913764215358022e-02 1.6917860495389389e-01
      3.2819268959328164e-02 -1.4162199989028738e-02
      -6.7101139165413146e-02 7.9703974549395387e-02
      3.9986363410369360e-02 -5.9251079957978771e-02
      -8.7401462693895246e-02 1.1262551087914957e-01
      -1.1748082626603469e-01 -3.5182477268216944e-03
      -7.8166422595915053e-02 2.1553613297205659e-02
      1.4707894159436505e-01 1.3234053518029223e-01
      -7.9120307992901102e-03 -3.3737318873604765e-04
      -1.4088653906586485e-03 1.8153191933113100e-02
      -9.2882312755878535e-02 4.8117329443356539e-02
      7.4708070440232852e-02 5.1042938223954878e-02
      6.7704327619072899e-02 1.4778094980334749e-01
      -1.1285497501027711e-01 -3.3877521372985851e-02
      4.7301092676691685e-02 -1.3325321778659985e-01
      1.5785489278717260e-01 -5.0526128010655050e-02
      1.4285692896131904e-03 -1.9890934766302606e-01
      -1.5012665478479939e-02 7.5206541942149319e-02
      -9.2690256783309846e-02 -3.1991066458363200e-02
      1.3738194798660822e-01 4.0367846656789337e-02
      1.1749268893174963e-01 -8.6566336138557673e-02
      -7.6615037104962466e-02 8.1121118086411786e-02
      9.9428862474895463e-02 -5.5500868196610910e-02
      7.9119926348342126e-02 1.7969974673545183e-01
      -1.0138026447534593e-01 -6.3128097889342391e-03
      -5.0314337485257224e-03 -1.4565307235733793e-01
      8.2156617065225739e-03 -1.1121189336541074e-01
      1.1663207597056763e-02 -1.5421597743059448e-01
      -9.4187871591921310e-02 -6.8125171496012674e-02
      -6.0029914826380627e-02 2.0986035144525489e-02
      -1.1113089503909161e-01 5.7986159562634518e-02
      -2.0280180639744819e-01 -1.0387917720914129e-02
      -5.5712085585413795e-02 -1.2335606591325383e-01
      7.0707982595028696e-02 4.2237927524716848e-02
      1.7268536803990975e-01 -6.8627818998468509e-02
      3.5704926262175279e-02 -9.4235047314486717e-02
      -1.3309619304801443e-01 1.5172734426923834e-03
      -1.8344663056473828e-01 -1.6157304218485316e-01
      -7.4450162264009370e-02 -8.4386703616739667e-02
      -1.1263874664584952e-01 7.8656527842632371e-02
      4.7338963466905498e-02 1.5485951101641282e-01
      -1.2992257508672368e-02 -4.6441827993322436e-02
      -1.0479830467419814e-01 -1.7661124182573354e-01
      3.3777585019501358e-02 1.8483353526551785e-01
      -1.5282551300358549e-01 -1.6866252089023353e-02
      4.5428391587062140e-02 1.3123972657912739e-01
      -8.8158911746605589e-02 -2.7441673493383546e-02
      6.6601586969985860e-02 1.2332029794515460e-01
      -1.9385063283084517e-01 2.6971654265493368e-02
      5.3024065637432588e-02 1.3670917912746922e-01
      8.5150877515582299e-02 1.0012048709320445e-01
      -2.3198618087840364e-01 -1.7498317457718535e-01
      -1.8589812729822405e-01 -1.6945260077078686e-01
      -5.9946299980097602e-02 1.7888050344585968e-01
      -2.0634201635972985e-01 -1.5665615256228027e-01
      1.5995425537772989e-01 -7.7348399810690666e-02
      -1.7157173331054459e-01 2.5572028800270097e-01
      -7.1767060554003226e-02 -4.8286403655014735e-02
      -1.5769061535577991e-01 -2.4300433346111255e-01
      1.8700078791847857e-02 7.8316989438996829e-02
      -1.6759784618879459e-01 -1.2268359555579424e-01
      3.2185860430941696e-02 1.1375437445672890e-01
      -2.4006781830136742e-01 1.3052602456033921e-01
      -4.1344119949665671e-02 -1.2098331300297210e-01
      -1.1160390882272379e-01 1.4056020803741112e-01
      1.0538062263987553e-01 7.6517598986555524e-02
      1.6710050013498681e-01 1.4002562564064133e-01
      -2.9706460844243613e-02 1.5177746570223876e-02
      1.0146408562220782e-01 -1.4879434772594585e-01
      1.0451018397992849e-01 -1.1780754898174747e-01
      -5.8464237480639510e-02 6.7549088048801900e-02
      -1.1229339738603651e-01 1.3026999417334292e-01
      8.3210013970832650e-02 1.2513852975093040e-01
      -1.6394714471695324e-01 -6.0876460667284263e-02
      1.5690405414194158e-01 -9.4321216964035934e-02
      -2.3972278738257025e-01 2.1387472959205678e-01
      7.6929706758744706e-02 1.8813916732909280e-01
      9.2652763919370204e-02 1.4644435081481966e-01
      -2.4420655448895459e-01 7.1237571771135891e-02
      -1.6125958372125587e-01 -1.0854280883867766e-01
      -1.2407873259661197e-01 1.8771363005025682e-01
      2.0204261897885473e-01 1.7281235962278671e-01
      -7.4951277278628478e-02 -1.3858326039498869e-01
      -1.0530074594828534e-01 5.5252436296728380e-02
      -1.8263906489107296e-01 -7.0914217274389610e-02
      1.5698933842745241e-01 4.9346391349474319e-03
      1.4460017757557833e-01 -9.3725744704191150e-02
      -5.0273855441692140e-02 1.4073587452468092e-01
      6.8975834080826262e-02 -2.3004163769733471e-01
      -7.3155003116167502e-02 -1.5447975305523684e-01
      3.1349221573784038e-02 -5.2862574751520752e-01
      1.4119918404100659e-01 2.2536723940788907e-02
      1.3468995518906271e-01 6.3774656814705816e-02
      1.5028004817887811e-01 -1.2016765199380391e-01
      9.6512991482335303e-02 1.2147094754197353e-01
      8.5331393169710709e-02 9.8455290694389200e-02
      -1.3532096364904711e-01 -8.1571679654019291e-02
      1.3829480078094941e-01 5.4434215151954755e-02
      1.0450269374595994e-01 -1.4547970575699148e-01
      6.1093619774610537e-02 -1.9672066607824196e-01
      -1.1609435087962888e-02 -9.8568549290016252e-02
      -9.3222606323636353e-02 4.6957485207395004e-02
      -1.2535349686564182e-01 -1.7443180897017668e-01
      -5.2814731593579453e-02 6.8512689443257849e-02
      -2.9667203381027952e-02 4.7864343317098483e-02
      -1.6020566563542366e-01 8.5113618055737222e-02
      8.0095342651862578e-02 -3.2757800442337053e-02
      1.5871590625048951e-01 -7.9724340569628516e-02
      -8.5264970231800061e-02 2.5437526262642163e-02
      -2.9191369424381231e-01 1.4843074579800672e-01
      2.8234743463941614e-01 -2.5831129366334227e-01
      2.5065878635317056e-02 -1.1564222950289967e-01
      2.1157104744910807e-01 -3.4788797957630915e-02
      6.1133021808206747e-02 -2.0785826708841934e-01
      -1.6720539256009542e-01 -1.1298355051663743e-01
      2.0813007963303276e-01 1.3030393213749781e-02
      9.7200323743584838e-02 9.1203776899411518e-02
      1.2972607520755111e-01 -5.1550180870592113e-02
      1.4894997868793974e-01 1.1782830008507662e-01
      1.5506048514768336e-01 -3.0533704278360724e-01
      -2.6023582160499931e-01 1.1926109852767511e-01
      1.2982685527108870e-01 -1.6687785611593731e-01
      -9.6758197843705832e-02 -1.5790723204111648e-01
      1.1855811145749010e-01 -1.4917894027334505e-01
      -1.5548125745878744e-01 -1.6234469655137326e-01
      1.4694667124087413e-01 4.1456051618323213e-02
      9.8835143325340033e-03 -2.0753919729112902e-01
      -1.8411382704662529e-01 6.8450010422390489e-03
      -1.0426361673185981e-01 5.6570779956374474e-02
      1.8595884788491510e-01 1.1871419409456420e-01
      -2.1125954937562651e-02 3.3075003970056971e-02
      1.3648468148341705e-01 1.6264074914301740e-01
      -1.3605320052657974e-01 1.5102553382494530e-01
      7.8350198978639846e-02 -9.7718866821609324e-02
      -8.1957462303500289e-02 -1.4653657500992648e-01
      -1.5314099218748009e-01 1.5882188937403507e-01
      -1.1144178710502040e-01 -2.0241224403217420e-02
      -1.6500523272257761e-01 1.2493971284264947e-01
      -1.1164497125853175e-01 -9.3703085482498685e-02
      1.4613696747676377e-01 -1.0237101706907864e-01
      -2.1211097804843873e-01 -1.2592768096138099e-01
      1.2870099304579866e-01 9.4658073257771220e-03
      4.7408568144436260e-02 -1.4429871104339517e-01
      -1.8215799446417139e-01 -5.0073377760634419e-02
      8.0836930666815868e-02 1.0426262897170317e-01
      -2.6972571349033803e-01 4.7624400280602712e-02
      -3.5648132789331148e-02 -1.6509779909434569e-01
      1.6786283040535613e-01 -1.9482325227201525e-01
      -2.4156564827566043e-01 -1.2491056200323696e-01
      -1.2970296362911812e-01 -6.7304095474525524e-02
      7.9042055263934444e-02 -1.2142040025538851e-01
      -1.2524642392887894e-01 -7.1973399704962235e-02
      1.2798801182492303e-01 1.7526696053262877e-01
      -1.1673847964478205e-02 -1.6399491575679687e-02
      -1.5413755222126862e-02 7.7947026490768666e-03
      1.6490432326815704e-01 -1.3906440245594561e-02
      1.6660163322006358e-01 -1.4237681180830469e-02
      -1.0104865132907838e-01 1.3572319482763792e-01
      -2.1909340966956847e-02 -9.4683049987622656e-02
      -6.4650905130355131e-03 5.3487480536464332e-03
      2.2392170437590477e-02 2.0339615653868251e-01
      1.6418367760786221e-01 -9.4931355777923471e-02
      -5.7689116315759847e-02 -1.4314303285687482e-01
      1.5409614229878990e-01 -1.4965730717535020e-01
      1.6954588521774439e-01 1.2633465936401109e-01
      -7.1491881056645515e-02 -1.8899844842662258e-01
      1.7247880413595931e-01 -3.0143234054692946e-02
      -4.7353192366107549e-02 -2.2757733340639422e-01
      -2.7137234503795513e-03 -7.8614924830000363e-02
      8.3683811499341617e-03 -1.2178265927483352e-01
      -2.6202293718521902e-01 1.7089203624257981e-01
      1.6424297409832891e-02 -1.3627847196947904e-01
      2.0241108984827977e-01 1.5907537862894250e-01
      5.7041862520236158e-02 -5.0787999924324319e-02
      1.4647647584329856e-01 4.5524345300634025e-02
      1.8279181624450058e-01 9.3734321386356595e-02
      -1.6749403043964631e-01 -2.4105314713433779e-01
      -1.7840686283312472e-02 1.1007447819503871e-01
      -9.9858815204488235e-02 5.5688489484095473e-02
      3.8906776618242371e-02 1.6291638985922560e-01
      -1.2573195676457752e-01 1.5701356249850147e-02
      1.3914786224400977e-01 -7.5001484602174096e-02
      -1.0671586765375310e-01 7.0530958958414824e-02
      6.0284386670614809e-02 -1.7380287432560892e-01
      2.1747478564237328e-02 -1.8759084497159956e-01
      1.2044174131127261e-02 1.1760464455815361e-01
      1.2200360801994777e-01 1.0643834795411167e-01
      6.9731682050618124e-02 -7.0608972118482133e-02
      8.0644303566248091e-02 1.5288415640005648e-01
      2.9738985174861461e-02 -1.0643423945453778e-01
      -1.1402367143783025e-01 -9.3629333666703796e-01
      -9.2699482611802175e-04 -9.2265279353434440e-02
      1.2794583584864824e-01 -1.0169602266425523e-01
      6.6490071584054455e-02 2.6386487173287992e-03
      -9.8001637780357906e-02 1.5578992315065288e-01
      -1.2491601985301964e-01 1.6171508474625679e-01
      -1.3107152806665101e-01 2.0711189788228929e-01
      -8.1931068543804164e-02 1.2987966397817177e-01
      -1.4930510734685917e-01 -7.2594878472072952e-02
      8.7419161878524776e-02 -6.7487953947876392e-02
      1.7617788144689123e-01 -1.0688100557063047e-01
      -3.6402864251949697e-02 -7.0047136838703991e-02
      1.2602505232927830e-01 -9.2228196101579535e-02
      -1.2369855426792714e-01 5.3260822252554289e-02
      -1.1900644557373811e-01 -6.9257282936263168e-03
      -7.1472615326988259e-02 6.0575679877892578e-02
      1.1121624245215915e-01 5.0283242934512300e-02
      -1.0274957611036072e-01 6.0717922303687943e-02
      -7.4244496510840682e-02 1.4269506862325278e-02
      2.3708314211001005e-01 1.0119862047592075e-01
      -8.3294733554981123e-03 -1.1094649320737457e-01
      4.5894356485766764e-02 1.5198652082338970e-01
      1.9552541154412434e-02 -9.0307029646938361e-02
      -7.5525538906583450e-02 -1.1112740193547838e-01
      1.1538423402114405e-01 1.0395346342916359e-03
      -3.3901429125230656e-02 5.8442046513645395e-02
      -8.3177301276690679e-02 1.9658054830134566e-02
      -5.0527881366518063e-02 7.8237024163709479e-02
      -1.2183978084670077e-01 8.0621700226788356e-02
      -4.3221574896040220e-02 1.3042192427909646e-01
      -1.5017955208606935e-02 -1.2425648322381834e-02
      1.2900660386385260e-01 -3.5891724767094749e-02
      2.2120194793048099e-02 -8.4433587037878052e-02
      1.5266355961442016e-01 1.8271541600428414e-02
      -7.5497552043985630e-02 9.7826952986932253e-02
      -9.0648155336005232e-02 1.9621208623094615e-02
      -1.4670499054577996e-01 -2.1961386569558327e-02
      1.7753422777065847e-02 1.4416828255434047e-01
      8.5884426269532022e-02 -9.8352044678931480e-03
      -5.5894516948391988e-02 -1.1729141584519659e-01
      -1.2295430809050796e-01 1.0867602562247346e-01
      3.9229403229957514e-02 3.3177045396923677e-02
      5.3920140278716500e-02 -1.5804492092869511e-02
      9.7443340896919542e-02 -1.0109483717065330e-01
      -7.5987757793866198e-02 -4.9857991011925576e-02
      -1.1726990019938149e-01 -1.1472840009951570e-01
      -1.0618783684820778e-01 -9.7378134868080030e-02
      -5.0793312091300141e-02 1.3681384393675413e-02
      -2.2661524705356994e-02 9.4201791018154887e-02
      1.4027728444145683e-02 9.8916691950746843e-02
      2.1051071995860648e-01 -2.0088321321006963e-01
      6.8333876362385609e-02 3.0906834251176674e-02
      -2.3662976298644247e-02 -8.0869636108713172e-02
      9.5452517198673134e-02 2.1712019881991382e-02
      7.4423414792674669e-02 8.0731990629590855e-02
      2.5885870087456636e-01 -6.0199798232983617e-02
      -7.2964127603546897e-02 1.2315196796580719e-01
      -1.2725385183940999e-01 8.8291466176765102e-03
      -4.8866260481081579e-02 -4.7879034181724780e-03
      -4.6760707222062957e-02 -2.6554010995091901e-02
      1.2678114813516139e-01 -1.2582378835629823e-01
      -5.4370169819456748e-02 -1.7579535330505727e-02
      -7.6026290784228234e-02 -1.0622736603962014e-01
      -4.9445422817466798e-02 -1.2495730599813921e-01
      1.7877949717874715e-02 1.0014403118857830e-01
      -8.5760923427307068e-02 -9.3850834360881139e-02
      6.0494702766812125e-02 9.4758318219515004e-03
      6.7574402634280106e-02 -6.3426231076196576e-02
      1.4601221168228343e-01 6.8432275908362872e-02
      -1.7145875215149955e-01 1.1884400669269309e-01
      7.4304708606531501e-03 -1.6782897050992802e-02
      -6.3923420763881814e-02 -6.7117334546326910e-03
      -1.0315237872168571e-01 -6.9216932160441447e-02
      1.5973391035990925e-01 -4.9363065657828074e-02
      1.2224405558441007e-01 1.2918941621763375e-01
      -8.1054580625600281e-02 7.5687005735353058e-02
      1.0048331274389409e-01 -4.5117419277211794e-02
      -9.5076245118432240e-02 -9.4170096942401499e-02
      3.0986779753728693e-02 -6.1754187544917983e-03
      -1.2206258286353516e-01 -4.7094078825543617e-02
      -1.1446327786002751e-01 1.4068773542202333e-02
      -6.2222397690330743e-02 -7.1986229786221295e-02
      3.8889677781201028e-03 9.6005764277749591e-03
      1.6250902792007069e-02 1.7228486745351605e-02
      -1.4448913117502503e-02 -2.4794255370253402e-02
      -5.0505734540553453e-02 -1.1141575466048903e-01
      -1.1522077493293804e-01 -1.8157975835903256e-02
      1.1224358664864177e-01 -2.6868318134424782e-02
      1.1127910827171110e-01 -1.9675051734514695e-02
      1.4785842276545852e-01 1.2672321034185282e-02
      -4.5014896029238298e-02 -6.2409854779579714e-02
      1.3473862789508217e-01 -8.9922645263234582e-02
      1.0008240161997521e-02 -5.4912317674568049e-02
      -4.4614201362674029e-02 -5.5888135722052736e-02
      -2.3120857040654967e-02 -7.3487602831119339e-02
      1.1895881604858018e-01 -3.3888647440747807e-02
      8.0293530693547097e-02 -1.0740783774278392e-01
      -2.4727856876792745e-02 -1.6064991214220542e-01
      1.1415499983108045e-01 1.5589828329798455e-03
      -3.1552633021899756e-02 1.1000915884001906e-02
      5.5599189714600501e-03 -3.7830422278206510e-01
      3.5730579990742306e-02 1.1059593719900843e-01
      -1.8559408218220365e-02 -9.2175668464078653e-02
      -1.6265638740890268e-02 -1.6563313445084815e-01
      -1.0163729289903068e-02 -1.0790729972123003e-01
      3.8029225601826401e-02 -9.2914433995734264e-02
      5.3182583016412863e-02 -6.3389074405249338e-02
      -5.2224679522647401e-02 -7.9991089691680811e-02
      -9.4954774290447894e-02 -1.0334280414671630e-01
      -4.7799908906604509e-02 3.4815512236685865e-02
      -1.2849801049201487e-01 4.3494762010163085e-02
      6.6812270483689262e-02 -7.7930401815136968e-02
      8.0922058498210644e-02 -4.3922005519066297e-02
      -1.3081507334364065e-01 3.4054713759771003e-02
      -8.3063158801783693e-02 7.0777642170529828e-02
      5.0955840155472193e-02 5.2645871376124601e-02
      -7.8803707762145209e-02 1.6064529843907502e-01
      5.5288365027549545e-02 8.1152006874850538e-02
      -1.2839553278476901e-01 -1.7207285579857810e-02
      -1.6558326576618800e-02 -2.7040330879630137e-02
      1.3479310415978768e-01 1.1228864833529190e-01
      5.6746811939197311e-02 -1.3093611602042848e-01
      -7.2327728475640410e-02 -5.4557525143593306e-02
      -1.0544777179853759e-01 3.7395061488704424e-02
      -7.0004048155154597e-02 1.1654822187210754e-02
      8.1664957069814845e-02 1.1221482844694107e-01
      3.3431485844176143e-02 4.6919560334876702e-02
      -9.0574418622220362e-02 9.4513825018586572e-02
      -1.2554528741602708e-01 1.2950346143504890e-01
      3.2984981764242874e-02 1.4447971214764432e-01
      -9.3114715633707840e-03 8.2465085381934131e-04
      -7.3384713019606890e-02 7.3975843104189705e-03
      9.3732071032257877e-02 1.1216481479740290e-01
      -1.5880245749114436e-01 -3.4612513879563274e-02
      -8.1396067450996923e-02 1.5761741747241076e-01
      -2.0871904055543108e-02 -6.7162646789462072e-02
      -5.4673456176617126e-02 2.9947284048957551e-02
      6.8732474327182408e-02 -4.5182062246915511e-02
      -8.6771803207651710e-02 9.4087875879869665e-02
      3.6939823035034729e-02 1.0201329786693795e-02
      5.0908164854690213e-02 -6.3970197380424823e-02
      -1.1941874844739189e-01 1.0778463917771386e-01
      9.4887582865187087e-02 9.4922433876482182e-03
      1.1353046143671726e-01 1.7066695084214001e-01
      4.2284496092383238e-02 -9.9704480639330240e-02
      7.8741300104209697e-02 7.9797357042463435e-02
      -9.6218948380316898e-03 5.8740411389885873e-02
      3.6242527656182168e-02 1.5721755748120231e-01
      -1.1132752267544918e-01 -7.1492608987893641e-02
      1.3020699778337444e-01 7.4698284808790955e-02
      4.2554275800603426e-02 7.8059307212243703e-02
      -9.8014585322173404e-03 1.4030694779020442e-01
      -6.5485785537119992e-03 -3.5401803295342350e-02
      1.0439721352436915e-01 1.2564901577427159e-01
      -3.2150846384996774e-02 5.1320749646842209e-03
      7.0429858199932291e-02 -3.7113991420651478e-02
      6.0296085611889511e-02 2.3076877333508619e-02
      -3.0040251005217121e-03 8.3837564073434512e-02
      1.3202181331947960e-01 1.6065085921977640e-01
      -1.1462577923428674e-01 7.6301979734072472e-03
      -9.5032541516083271e-02 8.1972928457953342e-02
      -2.3497914913276916e-01 -1.6105116908417363e-01
      -1.5947526288520086e-01 -4.2623221796141961e-02
      9.5156513766475423e-02 8.4632330643599638e-02
      -7.7608725300969475e-02 1.4205799489294024e-01
      -5.9634120516246997e-03 -1.3576971023610987e-01
      -1.5177053563727055e-01 1.6635351154495276e-01
      -5.0279183938725498e-02 6.2717269760012725e-02
      -4.7572060711440342e-03 -5.0499046242109755e-02
      -2.7285539287881228e-01 1.7489839839869351e-01
      -2.1987392353742785e-01 2.0491358060559666e-02
      -2.2249417031439214e-01 3.1055368854463100e-01
      -1.4498927486900090e-01 5.4053231706887576e-02
      1.2886275400481059e-01 -1.1354523411402788e-01
      -5.8383131946393226e-02 -7.0173661407567631e-02
      2.4199072084033796e-01 -6.0294920455837391e-02
      2.4215737792673445e-01 -4.4457209768447060e-02
      2.7334595099868426e-02 -8.5358633141733781e-02
      1.9959484632455013e-01 -7.9969550446765320e-02
      -9.4185236924036686e-02 -1.5415254585577787e-01
      1.3889506429984408e-01 -1.4246194521360056e-01
      1.2232143631423537e-01 2.3314523829316666e-01
      -9.8220549271913329e-02 9.0753277500831092e-02
      1.4744542944962885e-01 -1.9412213990135466e-01
      1.4651295246657117e-01 1.7932662343572929e-02
      -2.4018754627529276e-01 8.8183116158219069e-02
      4.1193247786657061e-02 1.8153853210920770e-01
      -3.2277956848570731e-02 1.1163420690505861e-01
      -2.1555779953850460e-01 8.0002671752146495e-02
      4.6850580008109849e-02 -1.8093038946325371e-01
      1.3439680399031084e-01 7.3591616640057934e-03
      -6.0944233622129739e-03 2.0929568107610289e-01
      -6.0517665330278607e-03 -8.5735533811515923e-03
      -1.6430221831851169e-01 6.0669148587101221e-02
      6.0876275726009808e-02 -1.0985347410420575e-01
      1.1591745680841810e-01 -8.4828085908455461e-02
      -3.4984493802618415e-02 3.8929721149831141e-02
      -1.9908044071728506e-01 -1.5780684540427245e-01
      1.3055486760019322e-01 -1.6571417670116198e-01
      -1.1310794788634627e-02 -6.1329235764536159e-02
      4.0844622046082892e-02 -5.4015207294640799e-01
      2.6045202382681171e-01 -1.9697213565580001e-02
      2.3388926556280518e-01 -1.1489954485084192e-02
      2.2171742681380446e-01 1.2228255510746421e-01
      -1.7577284411870411e-01 -9.1236452464769038e-02
      -1.2720984710771105e-01 2.1065983605468372e-01
      -1.3922867218689747e-01 9.1971885387786764e-02
      3.0805435924650078e-02 -1.2428912509501304e-01
      -7.9250182719806578e-02 -1.6625282228500754e-01
      3.5448519480196547e-02 -9.4308643751742721e-02
      -3.4285880559709582e-02 5.2098512558096718e-03
      2.9095625169743683e-01 2.8769306341163742e-01
      2.3694566053933316e-01 -6.3657885635050237e-03
      7.5984027592040052e-02 8.3949578939374811e-03
      -4.7405222654256667e-02 1.5001542819160571e-01
      -1.6766834166487471e-01 1.8847417278038226e-02
      3.4280747679382051e-01 8.3970080214812060e-02
      -6.2616946334809950e-02 -7.6766044403594857e-02
      8.3617340389919192e-02 2.4711253331222136e-01
      -1.2248729992023109e-01 -2.2914313558314039e-02
      2.4033200066016461e-01 1.7995525270169174e-01
      1.6105756464751031e-01 -2.2538341348296237e-01
      1.5501374394375561e-01 9.5858772418623159e-02
      8.1685205757078508e-02 7.9334679145832934e-02
      3.1963635241866928e-01 -1.1249137793474248e-01
      -3.9566263517458705e-01 -1.4590068185600075e-01
      -1.1374809897334916e-01 8.6034757856269170e-02
      1.2156974375578590e-01 1.0619625575199475e-01
      -1.8259590508363358e-01 1.7636352957868656e-01
      7.9950235355502386e-02 -5.5514356855026502e-02
      1.5742038634521688e-01 1.0580728617088044e-01
      -2.3807193298675779e-02 -2.4051295257023358e-01
      -9.3888682427632292e-02 -2.4003739869482513e-02
      -8.4346209623650109e-02 -1.4340731427709136e-01
      -1.0000998439856247e-01 1.3678019827293685e-03
      3.6409952938382723e-01 -2.5646884738433301e-01
      -1.8736573808862625e-01 -3.3884589274747767e-01
      -1.5001685782021343e-01 1.2051853391119004e-01
      2.5924838723859567e-01 -1.2471540173499435e-01
      5.7098239628335504e-02 7.0917772813342855e-02
      1.4242518302884977e-01 -2.9343633537524477e-01
      -1.9615918538313254e-01 -1.5693674775948127e-01
      -1.1266190591371565e-01 -1.7242023857981483e-02
      1.1301606191393813e-01 -3.1810708635642010e-01
      -1.0939684460978609e-01 7.3555937749741979e-02
      -2.3831044117575303e-01 1.2215762421044744e-01
      -9.5362799327686765e-02 1.1396391682758000e-01
      2.7267528289663734e-01 1.9683267900362883e-01
      1.0877343061852125e-01 1.5119181051700767e-01
      5.3986937316206941e-03 -8.7278525391963568e-02
      -2.1349707860108000e-01 -4.0631536812728947e-01
      -1.7197918302306880e-01 -7.8966277551923370e-02
      -2.6867861859264919e-01 5.7548591548028293e-02
      -6.1558393469358947e-03 -1.4938046207446964e-01
      -3.8406634385139164e-03 -1.8612293617478645e-01
      -1.4513494796971585e-01 -1.2060519565821702e-01
      1.9745221941564747e-01 6.1994229497616488e-02
      -9.3506392112393547e-02 1.9049639080346700e-01
      -2.0541424780702136e-01 3.8356806331853663e-02
      1.4034281891637929e-01 -1.7698756306072005e-01
      -1.7228527233632659e-01 3.0189228384849272e-02
      9.7229935478622909e-02 2.4646263839871907e-01
      3.0361258003301268e-02 1.1130037704097817e-02
      -1.6952861904894301e-01 1.3431706619562256e-02
      1.9515835569500015e-01 -9.6139247227358157e-02
      -1.7607854139630164e-03 -1.4415090016059859e-01
      1.3399217512897136e-02 -2.2805721088619724e-01
      -8.8362931222260452e-02 1.4693353539615789e-01
      -2.5700945398995950e-01 -1.8480104526419044e-01
      2.3497162131192006e-01 -8.3774104025558391e-02
      3.0278475335164312e-02 -3.8336962052541654e-02
      4.8318282762310046e-02 -1.3121406870446436e-01
      1.1342529234128260e-01 -4.3146578423047116e-03
      -4.1329192772795134e-02 -7.2363924327548304e-02
      -3.6473413205763833e-02 1.8758858498748579e-01
      -6.5788879402582587e-02 4.0619029268873133e-02
      2.9230493721634176e-02 -2.0453468008088338e-01
      -7.6945406859617010e-02 -1.4492650941034399e-01
      -1.7003233072865515e-01 -1.5960764423230442e-01
      2.1056528754014919e-01 -5.2585478465917442e-02
      1.1644234972528852e-01 -2.0300365457363009e-01
      -2.2306540338914341e-02 -1.4400776585389716e-01
      -1.6242956874902514e-01 1.6990079742670836e-01
      -1.6751192611941246e-01 -3.8237428420429251e-02
      1.9920202347631055e-01 -2.6618875891516958e-01
      1.2465562708498619e-01 5.5105164650068116e-02
      -7.3152013817756739e-02 7.8382332882862685e-02
      -1.4856405684977533e-01 -1.7313985249897410e-01
      -7.9621100059717141e-03 -1.5095306199996489e-01
      1.5419416843070866e-01 4.0998553337919318e-02
      1.5072655873025373e-02 5.9106086326414828e-02
      -1.6047400512476812e-01 2.8500760252750429e-01
      8.3293540486377424e-02 -1.4588009191523238e-01
      1.3406234807804968e-01 1.9717813010947882e-01
      1.2568349639887544e-01 1.1797582971097136e-01
      1.0562406303295509e-01 5.2536894175657441e-02
      -1.4520267259260802e-01 -1.6324530610940183e-01
      -2.4890346394905380e-02 1.9341855164154764e-02
      -1.3549756399661275e-01 -2.8391687821293216e-02
      2.0605602682098079e-01 1.1996267396642619e-01
      -7.2872884921384249e-03 4.8108843371202148e-01
      -1.3985268626222935e-01 2.1844947302989645e-01
      -5.4407687320922292e-02 -2.0835712621600966e-01
      -6.0922040974835473e-02 -3.3038746069874600e-02
      -1.4969627954861769e-02 1.3474926220509906e-01
      2.8566433894222726e-01 1.0738106870385998e-01
      3.9061452943853263e-02 -1.2173764219441104e-01
      -1.3443463876271572e-01 -1.8691560808603172e-01
      1.0311318863765581e-01 -9.7659548597275478e-02
      -6.1152935538220106e-02 6.1094634654818347e-02
      7.4293586249067928e-02 -1.1777494108255486e-01
      -1.6223042001485297e-01 -1.9059729973646922e-01
      4.4600962637113190e-02 -1.1132171822118976e-01
      1.4305087945911496e-01 1.2264155117559476e-01
      5.0030439648120331e-02 -1.3395288805335789e-01
      1.0234990944445069e-01 2.1546330777542974e-01
      -4.8801163292430783e-02 4.2589014816975877e-02
      1.0563798208460837e-01 -1.0780172178022181e-01
      -1.5086097049242791e-01 -9.5223683744628251e-02
      7.1798286326669264e-02 6.6719106402114078e-02
      1.4090924303376065e-01 7.1216875649468020e-02
      8.4330651830505747e-03 8.2754403840506127e-02
      9.4807859743644959e-02 -1.8650727573905357e-01
      -7.3956090769075181e-02 9.4265651802799888e-02
      -3.2738714864029232e-02 2.5670666564930798e-02
      1.9159654503340984e-01 -2.3233961561168307e-02
      1.4433208286510454e-01 1.1954793019340937e-01
      5.0200377686448902e-02 -6.0040046355353906e-02
      -1.1086884972357423e-01 9.4081818561227142e-03
      -2.5697099149100355e-01 2.6512927997194330e-01
      1.2822451946088822e-02 1.7564901257582777e-01
      -9.8898973707712834e-02 8.7376456635145247e-02
      -9.6306730524237272e-02 -1.1586465844687825e-01
      -3.9149953991742176e-02 -1.1123605307928759e-01
      -2.7070208310345545e-01 -3.6950632204826313e-02
      -1.4030773191283591e-01 8.7102235107336057e-02
      -1.4409583936034287e-01 -4.1127897046521707e-02
      -4.9402337371216354e-02 9.2845444336882466e-02
      -2.8151345483349539e-02 -1.2939511376529192e-01
      -1.5653041251775102e-01 -1.5929692258031891e-01
      9.2075739334826365e-02 -5.2660752427151909e-02
      -5.1087507569024977e-02 -1.0586554097981996e-01
      2.0427670348941308e-02 1.5011065302821666e-01
      1.8584567017299411e-01 -1.9742036685794809e-01
      -5.3701167807176826e-02 9.0133962401224260e-02
      -4.2781336526340141e-02 -1.7991532006594976e-01
      -1.1429939106858830e-01 8.8290256200551614e-02
      -1.5048519160868451e-01 -3.7230500394442492e-02
      -1.0934185333713857e-01 8.6453049174121721e-02
      -1.2609378839768470e-01 -1.3986948269995969e-01
      3.7057315079351144e-02 5.2754651311976453e-01
      -1.8186694090070105e-01 1.3888948166411849e-01
      1.0994068273996699e-01 -1.3020444478667539e-01
      1.1530456437685072e-01 -7.4744019749860766e-02
      -9.9936333634609492e-02 -2.7807858998248086e-02
      1.2423871102030720e-01 -1.2423213038142621e-01
      7.4586869158025523e-02 -6.4126926290278732e-02
      -1.3094266730355997e-01 -4.4190318381163912e-02
      9.9950129707767135e-02 -3.1674087738324253e-02
      1.2655930659212239e-01 -9.3873447578163169e-02
      -7.3495755354985967e-02 -1.0346469811767742e-01
      -4.3057808264478581e-02 -2.1563231055359795e-02
      6.4731347990766809e-03 -7.7342722563575481e-02
      4.9437092434582032e-02 -1.0598457015309215e-01
      -8.0506756249853206e-02 -1.2811550092872889e-01
      1.5411939446140612e-02 7.3558312889899294e-02
      -7.5457916277894110e-02 2.5859426097806219e-02
      -5.7171310252712278e-02 -5.3252809469263584e-02
      -3.5648155611615155e-02 1.4334681064143857e-02
      -4.3158380874624737e-02 -3.7124883356492154e-03
      -6.2068516551606993e-02 -6.2397914926128548e-02
      -8.0023241777354482e-04 -6.4866045745983314e-02
      2.5721384091296470e-02 1.0301658682926334e-02
      6.1069253408207180e-02 -3.1053933672547357e-02
      4.2348943845039837e-02 1.2643553225505330e-02
      1.8178524103726331e-02 -1.3316650510661615e-02
      5.8320952912992018e-02 -6.0730412490737100e-03
      3.0766471511146202e-02 3.4843130969134960e-02
      -2.8332965091627204e-02 -3.8091673136878184e-03
      5.4213859536232784e-02 3.9414247092280828e-02
      1.5735184302084898e-02 -3.6039938020335768e-02
      -6.3488001204405899e-04 1.1128366733833816e-02
      5.0619546530548181e-03 2.3492835424812368e-03
      1.1196477280557102e-03 -2.9862837839899410e-02
      1.0301331066478292e-02 3.6816052515613394e-05
      2.7622488801302580e-02 2.0271247919058918e-02
      -3.6515358471282851e-03 -1.9132780745134619e-02
      -1.4872733165738993e-02 2.9624552278211369e-02
      2.1010073421441889e-02 1.9911967621162780e-02
      -1.7448090923094906e-02 -1.2180978805056107e-02
      -1.7330812257840902e-03 7.2573918877569363e-04
      5.3409149226456322e-02 2.3923932518929075e-02
      -1.9302260942566135e-03 -2.8763711610436379e-02
      4.2808974415084661e-02 -8.2709215075590314e-02
      7.7956840924336048e-03 6.1458646401312725e-02
      5.7331432732110289e-03 3.8865961306923311e-02
      -1.1126565675548318e-02 4.4349209533054525e-02
      -2.6852090568201085e-02 3.4283329035540012e-03
      -1.4813681980559613e-02 -5.9267908298309822e-02
      -1.8714578525611040e-02 -2.9030812525627333e-02
      2.8936858268602445e-02 4.3271096949617388e-01
      1.1317957757383537e-01 -2.1438784072786055e-03
      -9.3793056046570039e-02 5.4212073733786829e-02
      2.7682646654652351e-02 -5.8298468148815043e-02
      2.8254192905027835e-02 1.0134518859306012e-01
      -1.8450319820680346e-02 8.0135909607056813e-02
      7.7278573649017690e-02 -6.8533793192806627e-02
      -9.9595157933998146e-02 2.9840882038901909e-02</_>
    <_>
      -3.1899535105492788e-02 1.5683325673576474e-02
      -8.3353683550545284e-03 2.3439085445721895e-02
      -1.1837128984485606e-02 1.5474928273187805e-03
      2.6985251739855380e-02 7.2969290464132862e-03
      -6.6161025124343381e-02 7.4902975090483555e-03
      -3.0207957572700693e-02 2.9715238351752209e-02
      -9.0133157136165539e-03 -1.2264749604023987e-02
      5.5116386237521096e-02 5.4417506124039124e-02
      2.3061859913835765e-03 -2.1711403927842095e-02
      8.7154162090992871e-04 -2.8339474116637715e-03
      4.4076238238207097e-02 3.4637765045867300e-03
      3.3456316690166826e-02 -2.8427865204534049e-02
      -1.7227624386344946e-02 4.3400919828812959e-02
      -2.4134561060815990e-02 -3.6970442977466877e-02
      -6.8020174952455772e-04 -2.3682686582689936e-02
      3.2929741396848011e-02 4.6933883320514423e-02
      -3.4302174826915666e-02 -2.2632385524813916e-02
      -2.3276165224377952e-02 1.7946815397625784e-02
      -4.6193475155839360e-02 5.9575187776828749e-03
      -3.7004896935466269e-02 1.4807542572310884e-02
      -2.0826861507531199e-03 -2.7670856948561334e-02
      -4.9472945065654313e-02 -1.1357686979277469e-02
      2.6953302159897712e-02 -3.4028646574778020e-02
      1.0142713491633799e-02 3.5206071981951859e-02
      4.6520813785035038e-02 -5.8480137800653934e-02
      -3.0271800827263894e-02 2.3794388906840224e-02
      -7.4825913474969391e-02 -9.7667168090606396e-03
      2.6084449895088027e-02 2.9174268534416076e-03
      -6.0168252857506474e-02 3.1150892017418018e-02
      5.8983960733936412e-04 -1.4021797686624397e-02
      -8.3668579618761795e-03 6.9272030308083030e-02
      -5.7149172743337466e-02 -4.1517915760811021e-02
      -1.3183391845321921e-02 -7.5491703574598256e-03
      -1.4190300631808190e-02 -1.4316155754667815e-02
      2.4923384964704115e-02 1.3527102325903420e-02
      -2.9952028306937011e-03 -4.8074765473338228e-02
      2.5702127356123702e-02 4.3714903334516391e-03
      -4.2651184173462309e-02 -7.4616146341566032e-03
      -2.6771134478265884e-02 -3.9178228403629924e-02
      2.2434541707849660e-02 4.5122253358037450e-03
      1.5086337066618362e-02 -8.2568633051514472e-03
      2.3782348002869821e-02 -1.0487743133076172e-02
      2.0840131722158275e-02 -1.5690072234951117e-02
      5.2913313316805075e-03 -2.6737032133829927e-02
      1.6664524301623407e-02 2.4432898968695326e-03
      1.4581105957611820e-02 1.8484933856802555e-02
      -7.1147033442142293e-02 -3.8432414427710809e-02
      -3.4619665905284050e-02 -4.7007458051015513e-02
      -1.2833886965688459e-02 4.7488915396920177e-02
      5.1061321170609686e-02 2.6961274271514204e-02
      -3.5385151950111410e-02 -1.7940140691674888e-02
      1.8076069717558402e-02 -1.0551031863910872e-02
      -3.8845496700449671e-02 1.8671604322333057e-02
      1.3245026353140088e-02 4.6511360410807875e-02
      -2.1808727409708666e-02 5.4344307726533425e-02
      2.4511578964147566e-02 -5.3942115953319179e-02
      -1.4509939972562081e-02 2.8536330192379472e-02
      -3.9028979763194838e-04 6.6863068038798393e-02
      1.5430493086961523e-02 -4.9973231048589119e-02
      -3.6516748986387758e-02 -2.3517956308083870e-02
      2.5476743483739975e-02 1.0561937842634936e-02
      -4.8614211087076673e-03 -1.5739763190361512e-02
      -2.1786128952376049e-03 -3.1736169640812606e-02
      -5.1332512624701683e-02 1.8629791705659760e-02
      -3.7487454953255811e-02 -9.0364281376038129e-03
      1.4105801592324220e-02 5.0644412959820709e-02
      -3.2192453921098922e-02 3.6519679351606729e-02
      -3.4938598134562404e-02 4.6550791664338818e-03
      1.0600718266910544e-02 7.4432468345420957e-03
      3.4425911139080384e-03 -1.5059465271837671e-02
      4.1791978173398789e-03 2.2971347544305003e-02
      -2.4956805231645543e-03 -1.1027513544050528e-02
      2.0728731688742511e-02 2.7209352189233753e-02
      -4.0969000943640371e-03 5.0450136909049204e-02
      2.2301290308965053e-02 -2.9339814429163606e-02
      -1.5260775866471170e-03 -9.0343206477027493e-03
      -9.3715982308406297e-03 -1.3422224125411164e-02
      1.1366101785772303e-02 3.4494793315346751e-02
      -3.6237440361932244e-02 8.8784086520669343e-03
      4.5971436459784194e-02 -9.6460491497807701e-04
      3.3179743518661625e-02 6.2610579253308679e-02
      -2.0938625077833121e-03 2.4604671706519939e-03
      1.5061565800556599e-02 -3.5581171370463849e-02
      -1.6780579099575858e-02 8.8712920342634766e-04
      -3.2184060289618087e-02 -3.0255766868161646e-03
      -4.6973006903431001e-02 -7.9900064171767871e-03
      1.8354588434947174e-02 2.6168685935108949e-02
      3.9432585892603463e-02 -2.8850963335099301e-04
      9.5381121044662964e-03 -1.9393223391098235e-02
      -1.4757347440824494e-02 -3.9631246786727692e-02
      -2.4930376396621542e-02 -5.7371623398251220e-02
      4.9848757004721252e-02 3.6680294215287700e-03
      -2.0142951924397717e-02 4.4014517427110746e-02
      -4.5957414967199635e-02 -2.7514969611986559e-02
      -1.6753522708480788e-02 3.9344528122037981e-02
      2.0432313903599253e-03 1.0852878718747627e-02
      -5.7534622313747716e-02 -1.0750318101758369e-02
      6.2287692346470911e-03 7.3113655647185577e-03
      -6.6432714745532501e-02 -4.9795094569268653e-03
      -3.0840424550275816e-02 3.7319342242613164e-02
      -2.1191471670143500e-02 -3.2227336645868590e-02
      -2.3003111433623585e-02 1.7965839367255432e-02
      3.1636945351229320e-03 2.0437811758994066e-02
      -2.5070659245170742e-03 -3.0674668677120452e-02
      -6.9196948885975745e-02 2.0806966601048783e-02
      -6.4944925508736498e-03 -3.0459007388735259e-02
      1.3063095132256423e-02 3.7395203358309898e-02
      3.6614097302107809e-02 -1.8900268409210479e-02
      1.6099663787702660e-02 1.9575285173447751e-02
      -1.5154087118982048e-02 -1.3402769282635165e-02
      -8.2865598053486859e-03 -1.5381349532432647e-02
      4.8241859416897105e-03 -2.2678051697254065e-02
      -3.2745268532512695e-02 -6.7342630304451849e-04
      1.7510058687777195e-02 -4.5039111164672718e-03
      -2.7772021280507091e-02 -5.5658838675945531e-02
      3.3358923236690090e-02 4.0252016519392753e-02
      -1.7001685147425159e-04 -1.7609921540993365e-02
      -5.4321462807330597e-03 -1.4584934683711222e-02
      -1.4649773260493318e-02 -1.1832974112377045e-02
      -1.0919494099184865e-02 -4.2196947650414533e-03
      -1.6932756777348571e-02 1.7592585810307749e-02
      -7.1284702666109492e-02 8.9326317970731747e-03
      8.6981685202796016e-03 1.2920385667038427e-02
      3.5173758231546591e-03 1.9641075951187838e-02
      -9.9658605830436082e-03 -2.2210261288992006e-02
      -1.2070169116845391e-02 1.7042632382284054e-02
      -3.7140633970599224e-03 1.1816046135657695e-03
      1.9381792102112976e-02 1.6659745547854567e-02
      4.3917156586481293e-02 3.5369726091211058e-03
      -4.4130228671940129e-02 -1.2829795299965181e-02
      1.7023552209138517e-03 -9.8301589969350435e-03
      1.5674676176060678e-02 3.7471020748592342e-03
      -1.6787788467726973e-02 -5.2602810848194322e-03
      1.1826333219589910e-02 -4.5098736949252052e-02
      2.1684678980178750e-02 -4.2052636355440149e-03
      1.3513412795473878e-02 -4.2336996976432915e-02
      -2.0413309151442269e-02 -3.7298461156049394e-02
      -4.3092092115547528e-02 -3.0528933662650651e-02
      -2.9995139579624488e-02 5.4524317544090064e-03
      -2.2180432312832177e-02 6.6144857030828608e-03
      -3.2862872445403445e-02 3.2824620275537710e-02
      -9.7079154440838776e-04 -4.2411743924834842e-02
      3.5004691131960190e-02 2.4124687093095881e-02
      -4.8112876739523650e-02 3.9571605871945512e-03
      -6.9143082132006352e-03 -2.5821298955873719e-03
      2.9657506543962171e-02 -1.3053155927440734e-02
      -5.2259095073134074e-03 3.7085479775488178e-02
      4.4052114922413135e-02 -3.0250109912675766e-03
      2.9292853901556996e-02 -1.2782169413347571e-02
      1.0017592684636012e-03 -3.1586276856861946e-02
      3.0828646974538056e-02 4.7493147877129195e-02
      4.1551328086332905e-02 6.8407341097551949e-02
      -3.8625367474906289e-02 3.5771719554007472e-02
      5.9057570849368655e-02 2.5317406500882714e-02
      3.5875934562268758e-02 1.0110105629972655e-02
      2.7414690383949922e-02 2.6795814134086157e-02
      6.5064836032634951e-03 -1.1846071772872970e-02
      -5.2919677800307589e-02 4.7064988595810729e-02
      -1.2007978143398690e-02 -7.6481257434955633e-03
      6.1835180145561651e-03 -4.1263559554761006e-02
      2.3513585649865273e-02 2.7409352459018561e-02
      -1.3693268555775729e-03 -2.4122906098985125e-02
      6.9489190107296988e-03 -1.9210150811802738e-02
      -2.8927602257139168e-02 -1.7845834000637616e-02
      -6.5161927440366184e-03 7.4735973995038188e-02
      -2.2069891851433477e-02 -3.6371045242412007e-03
      3.1221942485915217e-02 2.4481189092617477e-02
      3.4692318793306587e-02 2.7826653632862994e-02
      -1.5162990790894384e-02 -9.1446541521082447e-03
      1.1482958287074276e-02 -6.2995705918096001e-02
      1.7684741775750586e-02 -3.3503820638375321e-02
      7.4141668492091126e-02 1.6342599631415575e-02
      2.4607717959202892e-02 -2.5666179655618206e-02
      -2.1224539378770172e-03 3.0825612906050022e-02
      -9.8950303336202156e-03 -1.1992834962915035e-04
      -1.1087498703284671e-02 4.5736922449551229e-02
      -1.9341200097686004e-02 -5.1579916393024706e-02
      7.7543889709408590e-03 -4.6715994588856495e-02
      -3.9659950706722055e-02 -1.2772516560997394e-02
      5.5604770444248289e-02 -8.7422331941435852e-03
      -1.6942005709762657e-03 -1.8600344942937882e-02
      -1.2323317903679883e-02 -1.8794653909832686e-02
      2.8897015701547114e-02 5.0164926209834211e-02
      9.4354659190271136e-03 2.5033857946928632e-02
      -7.9647882262924435e-03 4.5024199543943514e-03
      -2.5565544306030644e-02 6.3990078305320320e-03
      6.3570423332443395e-03 6.7348319256675546e-02
      4.3987087409671964e-02 3.8428093786805062e-02
      4.5324559201085655e-02 1.4274328032269990e-02
      -1.7647723108062868e-02 3.3104612835870802e-02
      -3.0121380055909662e-02 1.0241990305087456e-02
      -7.9443930338827760e-03 3.4842273219461546e-02
      -1.3260203329276287e-02 -4.0650336865399924e-03
      2.5631635880093116e-02 3.2304732521082812e-02
      3.3253803229041116e-03 -5.2423936291637590e-03
      -1.6097803306058384e-02 6.1293907767423508e-02
      -9.4086588845961175e-02 -3.7892441439628805e-02
      -2.5964378410893451e-02 -6.2023657389741436e-02
      -5.7251220469939350e-02 -3.2244965280901088e-02
      -5.2776082380810276e-03 1.7795445203430505e-02
      2.3231845258992030e-02 5.8539895138420818e-02
      -4.9073680490756355e-03 -1.4061643939866791e-02
      1.9604068563584650e-02 -2.4973173827055051e-02
      4.4814986133677431e-02 9.0747526427867580e-03
      2.5330175580696133e-02 -2.3406855629528756e-02
      4.3855930338598092e-03 2.9076472143218336e-02
      5.2831348574900955e-03 2.2611969746349742e-02
      -3.5549955281105793e-02 -5.1705883989090621e-04
      9.4965614286459249e-03 2.9363389685651251e-02
      -1.5308839761322376e-02 1.5531115821593264e-02
      -7.2478549233103819e-03 3.4342432560582857e-02
      1.6653818929937649e-02 7.2412415110767363e-03
      3.2044724712364130e-02 4.0012175050926573e-02
      8.6901942920876597e-03 -4.0111623231752193e-02
      1.4329748185211542e-02 3.5043165710247841e-02
      -1.7407174067969655e-02 -2.1870368987967778e-02
      -1.5511088399984026e-02 -4.6141887594098490e-04
      1.7475153713473888e-02 -4.0769705983034329e-03
      -2.4317792639862341e-02 -4.4534879866265982e-02
      -3.6844312330579269e-02 4.5972339570387356e-03
      7.2628336834552635e-03 -8.8368992873289910e-03
      2.3722327333707317e-02 3.2078699715240543e-02
      1.5914790013499051e-02 -3.2184740805374687e-02
      -6.2936921505757516e-03 -2.1931546014741145e-03
      1.0567959390074679e-02 5.9378735232274611e-03
      2.0801282210546491e-02 6.8318685104576560e-02
      4.2098017329377504e-03 1.4426553372798134e-02
      -5.0785285987353782e-02 -4.6439438717401450e-02
      -5.8060648143806855e-02 2.8220767452776116e-02
      5.5648236851214873e-02 2.6611069660459992e-03
      8.7813284407879232e-03 4.8048896601103055e-03
      -6.8958987548535022e-02 2.7873525867141407e-02
      1.2236567245304994e-02 2.3863432219994606e-02
      1.7120537545180656e-02 8.7888289098839167e-03
      4.1776139418289813e-04 -3.8822531908613450e-05
      4.2880591586233099e-02 5.5012337163551368e-02
      -1.1665327209266827e-02 8.2930008130528334e-03
      1.0913273156813614e-02 -4.1010837819189907e-03
      -3.4160950061705845e-03 6.1855535236627268e-03
      2.4109865750817371e-02 1.6819018817387631e-02
      3.7279929802735652e-02 -2.7434019146038544e-03
      -9.6863732701670292e-03 4.2591903255581334e-02
      -9.0467983058230908e-03 -7.2004046866648255e-02
      3.2692172879880889e-02 1.0105330383606911e-02
      3.4230466718007065e-02 -2.3817213866002267e-02
      -1.9940649403428507e-02 6.0560212397399275e-02
      8.8866435605528000e-03 2.5145634720982100e-02
      -3.9745670355460290e-02 -2.2831547393518968e-02
      -2.1206800225663087e-02 1.4940734179409693e-02
      3.2610537034755707e-02 -1.9048238177082320e-02
      -2.9700359100070271e-02 1.6079478832762457e-03
      2.8343152320474928e-02 1.3972819269796587e-02
      3.7497196231777155e-03 2.1996619044422912e-02
      3.2704257485880371e-02 2.3797046464378465e-02
      7.4861317533852821e-03 1.3040196377388029e-02
      4.4336963673509970e-02 -1.1910053036374862e-02
      8.2151128384673183e-03 1.8841385693968680e-02
      -4.3175775391099104e-02 1.4893902675983946e-02
      -1.8417892653969925e-02 -3.6395609798503162e-02
      -5.7718949624212560e-04 -3.7987287907975870e-02
      7.4787647927369704e-03 1.2395447445307608e-03
      -2.2762995354450144e-02 -2.0687065505131979e-02
      -1.5726682472966297e-02 -1.6577907839912146e-02
      -3.9282401826279803e-02 2.8314085748035973e-02
      -5.5316532807910546e-02 2.1475004520639256e-02
      1.3304267719273337e-02 4.1020801425817564e-02
      -9.7472658350778035e-03 5.9050153454334618e-03
      8.9810018687077296e-03 2.0971146512235243e-02
      3.6660413029904498e-02 1.8152600981721893e-02
      2.3566213272826951e-02 -5.8548866632440126e-02
      3.0565143441888428e-02 1.9122505181322656e-02
      1.7273694635891755e-02 1.4061491684037714e-02
      3.6687963941231527e-02 5.1821091179256762e-02
      -3.3601823094787237e-02 3.7443764858112266e-02
      2.3482690981391347e-02 -3.5131039021631437e-03
      -6.7551354399121872e-03 2.0158309283388801e-02
      1.0932186554708791e-02 -3.8210310202280474e-02
      -1.1052129384874685e-02 1.7261308143944495e-02
      2.1389675368760543e-02 -4.3383595399025379e-02
      1.8224086478666791e-02 -3.5688766006018502e-02
      2.0591837903946829e-03 4.4698325273745633e-03
      -2.2471445959645994e-02 1.3756108808057324e-03
      2.9132978702877062e-02 9.5212257669406823e-03
      -4.6058461425012255e-03 -3.5510741870217024e-03
      1.3785536079378630e-02 -2.9351265773917088e-02
      -3.6151002909519642e-02 -5.7413268767810548e-02
      -1.4522970029570365e-02 -9.1985124475886752e-03
      4.6258014263713572e-02 3.2729673426053290e-03
      1.9220716877762372e-02 -4.9360766016993046e-02
      -3.5941129049842341e-02 2.1862806292850832e-02
      -6.8322829020603743e-02 1.8266879223750438e-02
      3.1793259119509962e-02 -1.2789133756632428e-02
      -3.6263398242904685e-02 4.2106361206580623e-02
      2.1726557970584682e-04 1.4169953172827878e-02
      -3.6132106385939104e-02 2.2311415193581218e-02
      2.5454354446403791e-02 1.8390269872270826e-02
      -4.9702763013314749e-02 1.1081798435363562e-02
      1.3506797689142268e-02 5.7211653936777409e-03
      -3.2360248175704411e-02 -2.7722731020226449e-02
      -2.5714382394169382e-02 -1.9818209673346264e-02
      -4.7333950511070151e-02 -6.3980577060687265e-03
      7.1718783839396245e-03 3.6665334872732075e-02
      3.5154326088676406e-02 3.3897320404089493e-02
      -4.6826449701478298e-03 1.4927083497668941e-02
      -2.6211596360182325e-03 -3.6086312925131508e-02
      1.5202551839118733e-02 2.7141471508221854e-02
      3.6998195524379343e-02 9.6802588020387312e-02
      2.8113667805557983e-02 -6.3066135563487113e-02
      -3.9507681740571100e-02 -3.1232045300013372e-03
      1.8304653462205087e-02 -2.8197640515023301e-02
      -2.1573232912523194e-02 -1.2411369140713205e-02
      -3.1139229255587879e-03 -4.4947075891993211e-02
      -5.4361357980608982e-02 2.7608663618392631e-02
      7.4572160624903031e-02 5.0328562835542816e-02
      -2.1616980482110987e-02 -2.2102916951628512e-02
      -3.7596190644028769e-02 -1.5628971991446642e-02
      5.3411439181264661e-02 -5.1521107124809458e-02
      1.4364401130214744e-02 1.0220062021978392e-02
      8.2311333508010252e-03 5.1712699515829040e-02
      6.2693276173280674e-02 6.4947302682453634e-02
      9.7791343930304239e-02 -5.1579343854349306e-02
      -4.8456200631874849e-02 -1.2543365601022335e-01
      5.7212558185248542e-02 -1.8907241904440311e-03
      -1.5585048421404943e-02 -2.1173598273384824e-02
      -6.7781098525512465e-02 -1.4658089872798385e-02
      -8.1359185380536908e-02 1.5659592394592265e-02
      4.9014122461461335e-02 -1.6184579137696192e-02
      -1.3966829220251682e-02 -2.2768280244823212e-02
      1.1078972655465050e-01 -8.3563947232640091e-03
      -8.4710828392253162e-02 -3.2971308487090928e-02
      -4.9693037908862356e-02 -3.6528281969694605e-02
      1.1147585243643434e-03 -3.1000123320374853e-02
      -5.3525051195991727e-02 -1.1439829740397121e-02
      -4.8540654048917435e-02 -7.8078523853734655e-03
      1.1113713822590565e-01 -2.3244432597490185e-02
      -4.7574918105122065e-04 -7.6477851454414630e-02
      -1.1541249699507929e-02 -4.4935013138999197e-02
      -3.4559104578124958e-02 -5.5208518006994008e-02
      9.6584566165266467e-03 -6.9084706731801324e-02
      -1.9624306300389041e-02 7.3807745246713297e-02
      -8.3680276484717986e-02 5.5632216403448821e-02
      -9.1710653799407307e-03 -6.0154415439871579e-02
      1.8813020610590824e-02 4.0008781887355425e-02
      1.3934976775594347e-02 1.2627426252878415e-02
      6.3121679042614301e-02 2.1576703360313837e-02
      2.9810695232588835e-02 -9.9128004696311861e-02
      1.2120819770935494e-02 -1.4349130907627820e-02
      8.3169058695797392e-03 3.7010428368258713e-02
      6.6659327639113586e-02 -1.3176778034819253e-02
      9.6762936075296176e-03 -5.9702557458899352e-02
      -6.6334140101524136e-02 -3.9396084491030679e-02
      -2.7841670004008251e-02 -2.2279255292272294e-02
      8.8898991161229637e-02 2.8190581709502751e-02
      -6.5218980904178478e-02 4.1190305696042614e-03
      -3.1579554197542797e-02 -3.1117188190332139e-02
      -1.4647723384759798e-02 -1.6738267121131866e-02
      1.7517654127314475e-02 7.2844210850894875e-02
      3.0271466923272365e-02 -8.1284976747588458e-02
      -3.7619768533546274e-02 1.6180557590475982e-02
      -3.0120405771255816e-02 -3.1496466532986309e-02
      -5.0318345529150037e-02 -2.8747023412508153e-02
      -2.4695242753530546e-02 7.0755914043367767e-04
      -2.6096228243229415e-02 -8.9227057280589842e-03
      6.1648577138582294e-02 6.2719447512404172e-02
      6.3827937666066674e-03 -4.5910472520876960e-02
      -1.6239178364952963e-03 -2.3587759595167884e-02
      -6.8857967932425294e-03 -6.6369989679123137e-02
      -2.3277436149124645e-02 -1.7227564292943850e-02
      3.8870581515333985e-02 4.5988846989159865e-02
      5.7496985199433491e-02 6.5578420784364419e-02
      7.2240349813672708e-02 -2.1998881285298894e-02
      -5.0299955341061839e-02 -1.0746709854722680e-01
      2.9361463329663440e-02 5.4803268734125228e-02
      -1.9071260043416957e-02 -1.4197909980534574e-02
      -3.9414238438591417e-02 2.9211278475306740e-03
      -4.7867114156343288e-02 -4.5026932245593863e-02
      6.8361273229094258e-02 2.5174647756357763e-02
      -3.3186325253113165e-02 2.1170889515154390e-02
      1.1155569137287187e-01 -5.3057327764361138e-03
      -9.4713808458862472e-02 -3.9947568384731983e-03
      -1.9466069723845375e-02 -1.0831972357217728e-02
      4.2283349310499534e-02 7.1569353951084127e-04
      -3.9019393696077223e-02 -4.1294402528882466e-02
      -1.8200360594636946e-02 -2.6572793216576133e-02
      6.2450894558508510e-02 -1.9367040146341285e-02
      -2.7386853406519283e-02 -4.2258950871403161e-02
      -2.9731513582368974e-02 -9.2077936202134864e-02
      -2.8627203687920162e-02 -8.7465498133076094e-02
      -1.3272076803545875e-02 -6.3745257761642332e-02
      9.7636163554519866e-03 -7.5447635749637714e-03
      -2.2501657939367252e-02 5.8504596132400104e-02
      -2.3938465934815016e-03 -5.7665503041292636e-02
      2.1660143005818980e-02 4.4805040551926474e-02
      -4.0140388813405044e-02 -5.2043710553059667e-02
      4.4597760110337940e-02 3.0159266951446589e-02
      3.1739465097501238e-02 -1.2234441666363416e-01
      5.1858126361712407e-02 6.0258355320679531e-02
      3.9281321212162039e-02 8.7157392097261005e-02
      1.1926917183714927e-01 7.9511205939925070e-03
      1.5235201016992399e-02 -3.7819470095720301e-02
      2.4973064987908765e-02 4.2108911351937423e-02
      -1.0307256598873786e-02 -1.9287989036719126e-02
      2.4886354337790847e-02 -1.1118423375883710e-02
      -1.9257824719379736e-02 -4.0811179329953793e-03
      4.3621334851052247e-02 -5.9398781167082450e-02
      -3.0884109108150187e-02 3.7101010333682460e-02
      -8.5286293949729287e-03 1.3032405725542968e-02
      1.7234658807204067e-02 -6.1461750282077045e-02
      -2.5156306457191260e-02 2.9819908406487825e-02
      3.0528332706754084e-02 -2.0530388616141534e-03
      -4.8679025609988198e-03 -1.4161566618935499e-02
      4.7583892510849497e-02 3.0606228891858534e-02
      -5.0745176000841739e-03 -2.1913677592455753e-03
      7.1171409408098699e-02 3.1655401903649467e-02
      1.7434676540476132e-02 2.9392169699869408e-02
      -5.6462816881343116e-02 -4.8427123693114561e-02
      1.4454953213822586e-02 -1.8736108771922194e-02
      -2.1599865656997119e-02 6.4593645992570229e-03
      -3.0515401274677528e-02 3.2416473481823853e-02
      4.6013917393053695e-02 1.0551052134599001e-01
      3.0061655168829315e-02 -1.6956242181417478e-02
      -8.1991437641115300e-03 -1.0159110570169309e-01
      1.9714818239778935e-02 -1.9904437694169635e-02
      -1.4421961743063844e-02 -2.2715635401020982e-02
      -6.9531812888672065e-02 2.1544886984089046e-02
      -1.0126834289963029e-02 1.8117429560823087e-03
      3.5327539160332551e-02 4.7021020378131689e-02
      -1.2237268037626354e-02 -3.7942906004511190e-03
      7.9612142963633184e-02 -3.5494857529088401e-03
      -4.1800288758265886e-02 -7.1758545359364954e-03
      -3.5240600704171302e-02 5.9555658298699517e-03
      1.1661497262640926e-02 3.3332211969473717e-02
      -4.5340684147456574e-02 -1.6685407464200632e-02
      -2.8537704630724497e-02 1.7664035325914380e-02
      6.1833493689395301e-02 1.4144170632231310e-02
      -2.4500110956974276e-03 -2.1840320917911275e-03
      -2.4626755353658759e-02 1.2433120514942423e-02
      -2.8957581398327794e-02 -1.5165594899773829e-02
      -3.4232699416920555e-03 -4.2502773074418111e-02
      1.5316846927747601e-02 1.6917104641035294e-03
      -1.8022114220562640e-02 2.2540762213873557e-02
      -7.2600784888031428e-02 -5.5641598132275096e-03
      1.1896908348153497e-02 -3.7861207240421605e-03
      1.8340714344840098e-02 -9.9033558292246048e-03
      2.2385891523458962e-02 -3.4597439682844323e-02
      -7.8986516862351447e-03 -9.8282979493445999e-02
      5.5589198076764615e-02 -2.5737724835036689e-02
      3.7387947523657294e-04 8.1791798686107101e-02
      5.0047336761141335e-02 -3.5162508979686338e-03
      -3.8265926093303225e-02 -8.4282226748696020e-03
      -2.7892955293195004e-03 2.3930883769354313e-02
      -2.2521712384105705e-02 1.8899121320664295e-02
      -4.4923884986239615e-03 -1.3860755126738176e-02
      -2.0609267237474235e-02 2.7115594390161694e-02
      7.0222768242116013e-02 1.1995829852490180e-03
      1.3923361007483049e-02 2.0319887594571717e-02
      2.3991121549620440e-02 4.0281664644450117e-03
      -4.0396760912154647e-02 3.1674455246025021e-03
      -5.7886390389629380e-02 -2.2297386650229831e-02
      1.9104442579267081e-02 -1.7742622087340374e-02
      2.6527551448126799e-02 -1.7034295798980397e-02
      6.0252934372976375e-03 1.9867866321121596e-02
      -3.8953526591528373e-03 -4.1474585063100561e-02
      9.4029146690715066e-03 5.0673492274262620e-02
      2.1206087068676317e-02 4.7932754682017464e-02
      -6.5957714452856498e-03 -1.5165962568297641e-02
      1.3816584267818647e-02 -1.9263680786927120e-03
      -2.6653775300136158e-04 1.8011326131643916e-02
      5.7242009285528306e-03 7.8194414596271064e-02
      3.3870909381967781e-02 1.3572065099091344e-02
      3.3731931743430733e-02 2.4096209981627134e-02
      5.8002177557028745e-02 -1.2651192167061124e-02
      2.9195223347225841e-02 8.7701363927192716e-03
      -1.3692804293442339e-02 9.9202364087838963e-03
      -9.3020470148759190e-03 2.4062243123078766e-02
      1.1349851770807457e-02 -2.0990810111003576e-02
      1.2499030161265480e-02 1.4442416910782857e-02
      2.7735197330870244e-02 -1.9641276786142733e-03
      6.6318559501372706e-02 -5.4391552977905239e-02
      -3.3163962588656309e-02 2.0966761022995901e-02
      1.1258324378469653e-02 -3.4744052070430479e-03
      2.3305335735353906e-02 1.6803605573763258e-02
      -2.3925720337974674e-02 -6.8056643773388575e-03
      -2.5128886217063880e-02 3.1356293298181466e-02
      4.2967322061351725e-02 -1.1331057255702950e-02
      -3.8393231626396469e-02 -1.8039109226582743e-02
      -1.7211319120618455e-02 1.2324961617004217e-03
      3.7324439968883620e-02 2.0791515762896120e-03
      1.7731126043988500e-02 -1.5752885009384657e-02
      -8.5964932410044735e-03 -2.0489725823705177e-02
      -2.1785253150222027e-02 1.0052635138219168e-02
      -1.2685031554602164e-02 -2.1753772302893819e-02
      -2.8013268406333461e-02 6.5733616622870278e-02
      -1.9474331072087771e-02 1.3957360782230501e-02
      -1.1801870828353449e-02 -1.0160977369598966e-02
      -1.4878249192386336e-02 -4.3348137655952815e-02
      3.5957464577018659e-03 -5.0600017212092216e-02
      -1.1091294596667800e-02 4.6350469637145356e-02
      -3.2806952718210576e-03 2.7159716087382921e-02
      -1.0579389795243850e-02 1.1656798273157250e-02
      4.5905750220884946e-03 3.2042681844292736e-02
      4.4044682089560520e-02 1.1811353261648846e-03
      -3.0261759429032503e-02 -1.2904741090220207e-02
      -2.9952779629233480e-03 3.9776708387561803e-02
      1.0141170390967348e-02 -1.5369718231306752e-03
      8.6523738518306473e-03 6.0658372509089488e-02
      -6.7183944295977779e-02 -3.6669649608937288e-02
      3.0696322831707339e-03 5.3611716828609437e-03
      -6.8804714637786112e-04 -2.8041450927353048e-02
      6.6067274650273150e-03 1.8599757480196412e-02
      -8.8429122130512602e-05 -2.8800033809049413e-02
      -9.8090435334448542e-03 2.5575750141558846e-02
      -8.9706270195308510e-03 1.7657661677863618e-02
      1.6219326596058733e-02 -1.0042066373626694e-02
      3.9928876970402524e-02 2.2932476955572084e-02
      3.7952416824198768e-04 9.1312081761750867e-03
      -5.3803707467284245e-03 3.4667409080915423e-03
      6.3069866944116329e-03 1.0186175262246565e-02
      -1.9224827344778251e-02 6.3397873564964263e-02
      5.2180759693059298e-03 2.6991170720648088e-02
      -6.6135993300680436e-03 -6.0813129363174789e-02
      2.8737992906680682e-02 -1.1125861505515431e-02
      4.6661318288422507e-04 -3.4483267932206470e-02
      2.6119541605561365e-02 -8.3531222183399617e-03
      1.2907973873530735e-02 -2.3575112550591422e-02
      -6.7208989858946909e-03 -1.3303151075349894e-02
      -7.2223686055897865e-02 -3.7464225279247310e-03
      3.4105788768254292e-02 -3.6325186904702690e-02
      -1.7724497406189491e-02 1.2976216459520188e-02
      5.7099424408973091e-03 3.6639108493252141e-03
      -1.3913547460277804e-02 5.5241722217600271e-02
      -1.4567957953285571e-02 -7.7929876000128280e-03
      -3.3838550186906187e-02 7.2391071012108312e-03
      -1.9658902314539975e-03 3.6893946114707195e-03
      1.4963269161708330e-02 3.7997541808749813e-02
      -1.2236197379468598e-02 -3.8522892405486293e-02
      3.7896806117389534e-02 1.5623547280193899e-02
      6.7928645759306764e-03 1.5807195130614616e-02
      -2.0319351727176235e-02 -3.7009145420003040e-02
      1.5606361137044347e-02 -1.1672068566885610e-02
      3.7782854754911437e-02 -1.4489500980962963e-02
      -1.2314242516901105e-02 2.2072364152141134e-02
      2.3920722658450220e-02 -7.2602402526099757e-03
      2.4162570875791697e-02 2.0788524501411346e-02
      -4.5141178472644762e-03 -9.2416758945173729e-03
      -9.6673523720806238e-03 -2.4936715443477864e-02
      -1.5536504092634984e-02 -4.4602017528006625e-02
      -2.5820020269267066e-02 -2.1419308638529606e-02
      -5.1420719223962122e-03 5.7336313438681896e-02
      2.6178804078884017e-02 8.2667172796458827e-02
      9.9721319221952182e-04 -1.5194631833808556e-03
      1.4153361051059764e-02 -1.2576641574955487e-02
      -9.1303603432616280e-03 -1.9635283431020851e-02
      -6.4140851878106654e-03 -2.2473761306404362e-02
      -9.9258974520703182e-03 1.1252869222937809e-02
      2.4316080335241411e-02 -1.0113215786209614e-03
      9.9500173454282349e-03 -3.6499048343617072e-02
      -1.8723665324688905e-02 -5.5289232701324969e-03
      3.8958601197754549e-03 1.2862845265424925e-02
      -2.8312779795779484e-03 5.9914598203677887e-05
      1.3334536949348200e-02 5.9488694092028043e-03
      -1.8828018389009528e-02 1.0194257802106099e-02
      2.5224755518627292e-02 -1.2999823638937002e-03
      -3.2237888699075755e-02 -5.5525026100594586e-03
      -5.6001322367983577e-03 1.8859480773114950e-03
      2.2237932673687639e-02 1.9949881602051339e-03
      -2.4800441837018433e-02 3.4341549479140247e-02
      2.4864114615202711e-02 -7.9582804852358253e-03
      -2.2602977435334085e-03 -1.2253514285660402e-02
      -2.8593093048282284e-02 -4.1756794030050962e-02
      1.2510336427757368e-02 -1.4794480528170600e-02
      2.6550278379067239e-02 2.1160859259567573e-02
      6.9050414985358816e-03 2.6492461573617079e-02
      -3.1439478075170418e-03 1.2162524033066573e-02
      4.0182299337772821e-02 -1.2945398110888188e-02
      3.5279099189865666e-02 -2.7359913020808597e-02
      -2.8829598323336689e-02 -1.3186363520423605e-04
      -1.5180858651617763e-02 5.9671648399299386e-03
      -4.4358454159037282e-02 -6.7954292973037506e-03
      2.2036701719300361e-02 1.5397240320532047e-02
      -2.5143502129675858e-02 -3.2602546663446530e-02
      2.0998536396099741e-02 -1.0047845885238899e-02
      3.7624647024649349e-02 2.7108066326705559e-02
      2.4087290342107773e-02 1.5885884715455087e-03
      -1.8596762155095148e-02 -2.1731290685311960e-02
      -3.1082725080785489e-03 2.8226272958391332e-02
      3.6793174325085699e-02 1.3654909660808604e-02
      2.5859566534527922e-02 1.6847353604264911e-02
      -4.9002018806623979e-03 2.0822582201533660e-02
      -2.9219276567796697e-02 3.9884920084499716e-04
      1.4510512427319882e-02 -4.0358106064229002e-02
      2.1504084424248920e-02 3.1632249835523402e-02
      -2.6510801394447017e-02 -1.4384483631171317e-02
      2.9581667854264772e-02 2.3454985652331868e-03
      -1.6001430334521536e-02 9.0505001469371130e-03
      -1.2851471125615953e-02 5.0016735291291900e-02
      -2.0571792184946196e-02 -3.1114715432647221e-02
      6.6308825908204206e-03 -2.4819073721001672e-02
      -5.2931711394231277e-03 -1.4798295246116540e-02
      -1.4447990732043265e-02 7.6295318146647334e-03
      -2.5764221444240617e-02 -7.1878250523714432e-03
      -2.6034180503055445e-02 -3.6963829197984133e-02
      4.9111825252897916e-02 -2.1442662417858516e-02
      -4.3152943863408885e-02 -3.1436637542552742e-02
      -3.6581868610532880e-03 -9.3903158470692808e-03
      -3.9011374328750355e-02 -9.0470952959953704e-03
      2.3723921717108808e-02 2.4379068173560833e-02
      1.4736854719664936e-02 -2.3467511432681686e-02
      -8.4105723271860628e-03 9.6224634949971626e-03
      -1.5288062940203313e-02 7.6556499567682093e-05
      -1.8251666118406538e-02 -2.1568637377782498e-02
      -2.9660756070711194e-02 1.7985008985655318e-02
      1.7789107814529821e-02 5.5430138964209109e-03
      1.7189325835683961e-02 2.4939188474317430e-02
      3.1414234649467750e-03 -5.0069299178175770e-02
      5.6678343312632157e-03 -2.5038895985307116e-02
      -5.4474233640699737e-03 -1.1247365931729640e-02
      -1.2001295717421250e-02 1.4997603710395088e-02
      3.5687152847947786e-03 2.4508360215344763e-02
      -2.3631829354364901e-03 1.9941829917203311e-02
      5.3281567509464419e-03 -6.4142315046715323e-03
      -3.4065164528148402e-02 -2.0137228653539160e-02
      6.3477544093868054e-03 4.0438987022438248e-02
      -3.0545898764775935e-02 2.1746625522338701e-03
      2.8543870732770097e-04 2.2416930339251212e-02
      -6.9042347832635230e-03 -2.3278443747379276e-02
      3.6601010595497571e-02 2.2986027453744829e-03
      -1.7992498653354876e-02 4.6437974867228303e-03
      2.0370385923148274e-02 -1.1056232070128154e-02
      -3.2571611291663513e-02 -1.3949287538779201e-02
      3.9521452014934511e-03 -2.0351150612244696e-03
      1.3055179515748597e-02 3.2967084712880223e-03
      -1.4673389458042356e-02 -8.9263572572657116e-03
      1.9379652152261458e-02 1.5357686476293016e-02
      2.7154110756511848e-02 -2.0815726175149036e-03
      -2.0425328027356748e-02 -1.6527347852759847e-02
      4.4381678019805443e-03 -3.3807377059771840e-02
      -4.4764299397095780e-03 -3.5651558020338224e-02
      3.8443109503243328e-03 -3.3506697986691009e-02
      2.3123500659052573e-03 -7.9327104165396178e-03
      -2.5380641180955694e-03 2.2467633990756238e-02
      -1.8557647028333458e-03 -9.6763290962436580e-03
      1.2919079200198453e-02 9.6761294106297874e-03
      -1.5291266005533485e-02 -4.5820366464505657e-02
      7.8808117178317001e-03 1.0374074540921558e-02
      1.0095383685510261e-02 -2.8708639964556543e-02
      4.7128907434332942e-02 1.2275833137857725e-02
      -1.2986261485030265e-02 4.9827288488449868e-02
      3.8027072012796106e-02 3.1626041771344545e-03
      1.8008884321736703e-02 -1.2179234484582533e-02
      -1.9068061167184885e-02 2.6967444938442366e-02
      -3.9340735304573757e-02 -1.1881676851930127e-03
      3.8159971232285844e-02 -1.3234381696967759e-02
      1.6806713657726222e-02 1.0145069975087869e-02
      1.5705309325793133e-02 3.3428711215620003e-03
      -1.9161095498639969e-02 1.4977073122093242e-02
      3.0959801245059929e-02 5.7377298403977282e-02
      1.0655143098904286e-02 1.1737263181852923e-02
      -2.8225735601134994e-02 -1.9526398159511515e-02
      -3.4104320240504046e-03 -1.2229547890960047e-02
      1.6995423444940549e-02 -5.4329056063736484e-03
      1.8460959992194881e-02 -2.4100772281652073e-02
      3.7604120496858920e-03 7.7516951405062996e-03
      -1.2240209216138821e-02 -1.6592718182916463e-02
      -1.6031601710740244e-02 7.4526290777533451e-03
      -2.0487779742142151e-02 -3.1655122848489571e-02
      -2.7447468323223142e-02 -1.1976136121390568e-02
      -3.7366289727114879e-02 1.1491307618410622e-03
      -2.5984819016103377e-03 1.4671416446303006e-02
      -1.1274089564036120e-03 4.5539014283706811e-02
      4.8449648248930298e-02 8.0500477577371068e-03
      1.4877163720241988e-02 -5.0345119394507212e-02
      3.5080333838361871e-02 -1.5438524744159524e-02
      -4.9827305090853771e-02 1.5179110427540943e-02
      -4.5310698259001449e-02 3.4696063929246783e-02
      -2.9585070732281137e-02 2.9923880747408923e-02
      2.5293223481460306e-02 4.9880841921832661e-02
      -5.4077805068614343e-02 -1.8295458516348111e-02
      2.8171279079357851e-03 4.7759140743421488e-03
      -3.0490375747129948e-02 -7.4209160486918653e-03
      3.2421872211103511e-03 4.6662986644019605e-02
      -3.9244052252257376e-02 -8.8270991742092821e-03
      -7.1068360140527781e-03 -5.6422347460356514e-02
      -3.0319434591397149e-02 2.6158245284139884e-03
      4.7058294459815589e-02 -2.6576596004498229e-02
      -1.0429560571054073e-02 -1.3516427760415053e-02
      -1.5274450919250209e-02 -5.3339199348788266e-02
      -5.4441168338693093e-03 -4.0101855330105705e-02
      -3.5911200153033535e-04 -2.7061990177559836e-02
      1.8051081977024003e-02 -1.4081221160379609e-02
      8.6105850846563917e-03 -6.2986257787079371e-03
      2.2382760311264727e-02 1.8787313573732579e-02
      7.2308988447848041e-03 -1.2088521051767628e-02
      2.9637638404759931e-02 -4.8011886858795878e-02
      2.2938032737647128e-02 1.7240220063982157e-02
      -8.9471015401394738e-03 -4.7354849191243130e-02
      -1.0147226351961691e-02 -3.9511434014565935e-03
      -3.8086341944634228e-02 6.4175869622650455e-02
      3.0582221127846931e-02 2.5536554877230784e-02
      1.2019028756527697e-02 -2.6409446140672026e-02
      3.6213186783285112e-02 2.5380687121327142e-02
      2.8830513628585863e-02 -2.5772905373535669e-03
      -2.8779522763632295e-02 6.3752246497037158e-03
      -2.3603634323452180e-02 3.3618021231081263e-02
      3.5877557537504857e-02 1.5675316606355773e-02
      2.2411772099554948e-02 -1.3545565908782508e-02
      1.0070256851859812e-02 -4.6739464624964998e-02
      -1.3053422920927130e-02 2.0442570679810312e-02
      1.3516628576557159e-02 -1.1584431789689389e-02
      -7.7144004133830948e-03 -6.8822502114655052e-03
      -1.0516424162994914e-03 -2.6875724559980536e-03
      -9.4742874511845158e-04 4.4157927303375609e-02
      2.4896501074530578e-02 -5.6027832558988737e-02
      -5.2149125737863530e-03 -4.5854710894599002e-03
      8.5055000047925614e-03 4.7387581180843151e-02
      -3.1799597146501108e-03 -1.6513103963330809e-02
      -8.5062524330805737e-03 3.2018512725856763e-02
      -3.1401701592688423e-02 -1.3209804466604380e-02
      1.1819011184808938e-02 -2.2089704942510249e-02
      1.2832113905631735e-02 -2.5402862373398890e-02
      -4.6707467991214842e-02 3.2908329217972321e-02
      6.3469545040216874e-02 4.5155038051160508e-02
      -4.2522577170061054e-02 2.9974711613471030e-03
      3.4287050123507815e-02 1.9432896938650402e-02
      4.2256482548540183e-02 3.0079866647821366e-02
      4.0708190228681954e-02 -4.1916576051593150e-02
      1.3775567341607738e-02 -3.0627535313488552e-02
      3.8348158435079001e-02 4.5277147567520685e-03
      -1.1618688689925718e-02 -1.1256558656100261e-02
      3.9060617290430283e-02 2.2665094899157637e-03
      2.3793422370786384e-03 -5.2349154412599606e-03
      1.5226562242571991e-02 2.4031071973499674e-02
      -6.8620245955808264e-03 6.3916545351428607e-03
      1.6515560525297696e-02 5.0427852543658662e-03
      -5.2899373471267601e-02 2.2322312151382064e-04
      -2.6697442172288650e-02 7.1985201435854018e-02
      -8.5346668380747205e-03 2.3864884850786465e-02
      4.7604844285391044e-02 3.6213692228880857e-02
      1.2735724010252844e-02 3.9592504151353652e-02
      -1.1134676556600208e-02 -1.1125870214233323e-02
      4.2080997588485207e-02 -3.0780339667575641e-02
      -3.1489936792887890e-02 -3.2865637376585407e-03
      -4.2801664472254725e-02 2.4425931742104917e-02
      1.0778255677049165e-02 4.2874416910070351e-02
      -4.1565851927284389e-02 -3.4296892582085924e-02
      -1.7914073580740198e-02 6.1654444596153046e-02
      1.4434473735869785e-02 -4.0268478299442544e-02
      -2.8763663345708359e-03 -2.9274504719232691e-02
      -4.0486107994264921e-02 -3.3641571373062597e-02
      -3.9785509891087235e-02 6.2443814743677016e-02
      2.4032976212736524e-02 5.9791125084809583e-02
      -1.6729024905225431e-02 2.9722605747062855e-02
      -2.3271849058506825e-02 -9.4942337423605649e-03
      -7.7723083942679416e-03 -5.5913628950113710e-02
      1.0191354426857856e-02 -1.8671663789120430e-02
      -3.0457291583154907e-02 7.2799566662629586e-02
      -5.0524384127563285e-03 -4.9965797539391628e-02
      1.3936416389779233e-02 7.6016564886992604e-04
      -5.4521254184737465e-03 3.7076849117736680e-03
      4.5589510734807402e-02 1.9727669658958773e-02
      1.2350101825418921e-02 -2.0475198328008655e-02
      1.3597781384226282e-02 8.4569100443057535e-04
      -3.0421832893103552e-05 3.0126526949154592e-02
      5.2478742180695329e-02 -4.3890906251806430e-02
      4.2271657276450013e-02 2.1259716214043343e-02
      4.3021558812042331e-03 -1.5283788018266723e-02
      2.0647420679120929e-02 1.3973477625792636e-02
      3.1252959415153131e-02 2.3449936396461316e-02
      -2.8707251690851230e-02 -3.6267474821302672e-03
      -1.2093896472487379e-02 9.8964641075064124e-03
      -3.3689245018036851e-03 -5.0106999301477585e-02
      -1.3464826943721420e-02 2.0120964211325039e-02
      -1.6723266801594111e-02 -5.4010938509158099e-02
      3.7829374657336365e-02 -1.8020438337632273e-02
      -6.2754903872583746e-03 1.9952984470296024e-02
      8.0122412578397528e-03 -1.4058621904471842e-04
      -5.8611374278091627e-02 3.3915482469146988e-04
      4.9678590064036729e-02 -1.4892439660500793e-02
      -7.7548994898259038e-03 1.0702576759587504e-02
      -1.4593224986422456e-02 -2.8276036691226472e-03
      -3.7798889033678611e-02 -2.2447712464178565e-02
      -2.4455977501164724e-04 -2.4509462061840109e-02
      -4.0789723842272516e-02 3.7350824337964120e-02
      -2.2352043487886206e-02 -2.1772744298894863e-03
      8.2137951918781274e-03 4.2604504859438883e-02
      1.0578770312093061e-02 -5.9146159497795964e-04
      3.6131933220099999e-02 4.2096953304393760e-02
      -4.0229358203645448e-02 1.9539363005724099e-02
      6.5737690543194189e-03 -1.1963762414022033e-02
      3.4605654657456964e-03 5.0610878198215088e-02
      2.2053055070945949e-03 -1.1533993717497109e-03
      -3.2936239192931177e-02 2.5363797338592484e-02
      4.3347773730649172e-02 -3.0898745953176623e-02
      5.1969392709722083e-02 2.9242654032714217e-02
      1.3465045899423525e-02 -2.4974894941273678e-02
      2.0239683524293485e-02 -1.9645798873105379e-02
      -1.6259307120724924e-02 -5.8495627458577684e-02
      4.5867262230647899e-03 -6.4225922353899026e-02
      4.6438338459182035e-03 2.7031227181615216e-03
      3.5763716256602116e-02 2.5806826920613066e-02
      3.4251734500756752e-03 1.5966797705386161e-02
      -1.9466040859660444e-02 -2.4460174530659021e-02
      6.4890528808775161e-02 -5.1406548064380280e-03
      -3.7755718076984621e-02 -3.5244017580067157e-02
      4.8241450636368144e-02 -6.4074178259492034e-02
      -2.3902972213141805e-03 5.8413836399477059e-02
      4.7304528718522428e-02 5.0484364798866317e-02
      -2.1768707074759554e-02 -9.4444795099830642e-02
      -5.1407508132244394e-02 4.7286126511944866e-02
      3.5147096050985094e-02 -1.8149651579777614e-02
      -2.4022225699476603e-02 3.0488904851160088e-02
      9.8526931767110651e-03 2.5592657389063313e-03
      -2.1825830211706188e-02 3.2736344600967707e-02
      3.9620547233901529e-02 2.3398064167439038e-02
      2.2928685865040148e-02 3.7648466439823003e-02
      -4.2853848634692111e-02 -1.0518778422833396e-01
      4.8885128537800172e-02 -4.3280448658998112e-02
      3.7752427833137606e-02 -1.3112696318855954e-03
      -1.0332907113393320e-02 2.5493012058015282e-02
      -4.1017325945129114e-03 9.4582298152979846e-02
      5.6224163412753582e-02 -3.6826670161262558e-02
      4.3966718201207461e-03 -7.1672279825815352e-02
      3.6508290864386037e-04 -3.7945300915702196e-02
      -2.4173801765356863e-02 -4.7707162298560320e-02
      -7.8584595740051999e-02 8.8073564850983721e-02
      -1.8526218553565860e-02 -1.9556983548715885e-02
      6.3029574706173166e-02 5.1338048334061130e-02
      -3.9838710244312278e-02 -4.4614614497283371e-02
      8.5306460315104138e-02 -1.3394528463619167e-02
      -6.7573923188366206e-02 3.6971289639107709e-02
      -1.1541785762145285e-02 -7.0847766475355220e-02
      -1.4779116630089843e-02 1.1310600203061317e-02
      -4.5708431847985079e-02 -7.1906057316455324e-03
      -1.5675941264505855e-03 2.5554290417990996e-02
      7.3788385813993773e-02 -1.3843510732977574e-02
      2.7636974013108835e-02 -1.2137232234660967e-02
      -1.0128869205669933e-02 -4.4350895278629537e-02
      -1.7576959396121108e-02 -6.6860809422272682e-02
      1.2447190168616826e-02 -3.6056999831305746e-02
      1.4440071619038836e-02 6.6208569117218841e-02
      -3.9016417953081507e-02 4.5842487890333364e-02
      -3.9393882331966813e-02 1.2455107465234858e-02
      4.0941694750280906e-03 -3.4354076516277629e-02
      5.5532831607667275e-02 7.7710398163484086e-03
      5.1071709022829578e-02 -9.9929679787558075e-03
      -1.3081049855670805e-03 -6.8305029551042895e-02
      9.2799807490359876e-02 3.5090807377219070e-02
      -1.5105416265471067e-02 5.1159893360922540e-02
      6.1125819909000859e-02 -9.1396882847174718e-03
      -6.9971564981956263e-03 -3.3530807379728814e-02
      2.6914765496240008e-02 2.5067726514182917e-02
      5.0691760914553859e-02 4.6527841874423603e-03
      -5.1896069869442785e-02 -2.4871630372090290e-03
      -6.7340744283216018e-03 5.2231968811453172e-02
      7.5531251034987269e-03 1.2723939900880124e-02
      -1.8514929435780952e-02 2.6439571492330175e-02
      -5.0240879181244445e-02 -2.3324025163439007e-02
      3.2157143509231177e-02 6.6354012132283646e-02
      2.7286063817414094e-02 -1.2967303889403526e-02
      6.0193104174272429e-03 2.3851569777580687e-02
      4.8594968109857362e-02 -2.6924623648100866e-02
      -1.6843491797168812e-02 2.9877438909773922e-02
      9.2335776302433035e-03 -2.9762367320412788e-02
      -1.1251234117743262e-02 2.2621916707530023e-02
      1.8253246548422024e-02 -5.9352053352632892e-03
      1.8790892806374037e-02 1.7024816837295915e-02
      -8.4864125732901405e-02 5.2315781899664217e-02
      -5.5270065987510018e-02 -2.7704833856531982e-02
      -2.4951646546251913e-02 2.3647196386467968e-02
      2.0064204643127918e-02 1.9171780795992528e-02
      -5.2315770326291998e-02 -4.0368663778421535e-02
      1.6684601071700153e-02 -1.6001681469615264e-02
      -2.3649492715693769e-02 -2.5378755330250566e-02
      2.0930844313315176e-02 -2.8797000232898985e-02
      2.7154370082959737e-02 -4.5144134374801616e-02
      1.4618136446683152e-03 -1.1572850531280088e-02
      -8.8464690062065893e-02 -8.8433022185133922e-03
      6.5707888424026461e-03 1.1808694947226313e-02
      -6.7461684385357656e-02 2.4591940166764692e-02
      4.1138279787498892e-02 1.2668753343356137e-02
      -4.0658408173452232e-02 6.5829941936329878e-02
      1.7250374762001464e-02 2.1996307794924518e-02
      -2.6644230969598095e-03 -4.6900572518086383e-03
      3.4814346395819233e-03 -1.0645995433339103e-02
      -5.1041198492262567e-02 3.7933735127884075e-02
      -5.0812029732580748e-03 6.2735906319711958e-03
      3.2607896066161428e-02 5.6580157455082138e-02
      4.1920271853964700e-02 3.8315719088056234e-02
      -2.0219963709765875e-02 -2.3255102948675378e-03
      9.0455393940323363e-03 -4.6356770560116410e-02
      7.9224419294634557e-02 -7.3534320593754685e-02
      4.5649229894071204e-03 8.2429990331095004e-03
      -3.0133016534315701e-02 -1.5701612960268153e-02
      -1.7991168683497645e-04 1.0131917308683880e-02
      9.1970317380651097e-04 1.2737201276919084e-04
      -5.0407534111986917e-02 4.3598880078396914e-02
      -4.6701100160545780e-02 -5.6916163899538366e-02
      1.6637802256633220e-04 -3.1490300461662436e-02
      -2.1113984237306895e-02 2.3901849698795233e-02
      4.0628596502790184e-03 8.5486063443076604e-02
      -4.2114804346316932e-02 2.5066440479518105e-02
      -2.3975739702114616e-02 -7.1257927381517113e-03
      7.4136822814790514e-03 1.4644682817279185e-04
      2.0238693047884365e-02 -3.4817617917619816e-02
      -3.4267965276873293e-02 -4.7768008934818912e-03
      -2.5038094187170783e-02 3.4754647769327775e-02
      3.1715878537173385e-02 -8.8279031444062107e-03
      1.7537234329622606e-02 6.8171526951281121e-03
      -1.0078884975374633e-02 1.2652478188178529e-03
      2.9139160279184163e-02 1.3461513610155906e-02
      -2.3440378507258107e-03 -3.0871837273576961e-03
      -2.8291935035445971e-04 -4.9600315425607368e-02
      -1.1611650590150728e-02 3.3279755766053486e-02
      1.1660436690576464e-03 -2.4659736980555839e-02
      3.2464966636301155e-02 -4.0150740068882744e-02
      2.6335235338448603e-03 6.8794672733507927e-03
      1.3908026484442341e-02 -4.0145001985016464e-02
      2.9565665239499737e-02 -1.2709829791333184e-02
      3.1344682928777234e-03 -1.4099968047864285e-02
      -4.5671661948372778e-02 2.7604007973338011e-03
      4.3126132595500662e-03 -4.8273322019633309e-02
      -4.4473571321270229e-02 1.5439728331672646e-02
      2.1062852219029902e-02 2.7988715653915466e-03
      -1.6541088149663829e-02 1.5469608304594956e-02
      1.0779539526328335e-02 -6.9556503490808509e-03
      -1.2244960271281363e-02 2.6398739528170980e-02
      -1.9843684149411307e-02 -5.9986253967845632e-03
      -1.7060600527075163e-02 -4.0013136680716503e-03
      -5.6953547238620533e-02 2.1164778529912665e-02
      4.3729082815055879e-03 -9.7571515984270253e-03
      5.5559840305417175e-03 -7.6142194573852800e-03
      -2.7590762533081188e-02 -5.0094414945559530e-02
      1.3759933062422304e-02 1.6931292327041148e-02
      9.0136885243469796e-03 -1.9240914435782668e-02
      1.0954059013093032e-02 -2.0859167220827313e-02
      2.5821468246695560e-02 -9.1781921553202896e-03
      -1.4268105602208028e-02 -2.6915624563865658e-02
      -1.2538393605327125e-02 2.8105162458491990e-03
      -4.0149422673718994e-03 1.5520258209897274e-05
      -1.8204171500986764e-02 2.9279001701807136e-02
      3.0525823372752840e-03 2.8999031841661100e-02
      3.9120595205868018e-02 2.8881356872915782e-02
      1.8455600729171861e-02 -1.8166568542831850e-02
      5.3122672427417333e-02 6.5939672844985437e-05
      -1.2025631960145493e-02 -8.4403381964350873e-03
      2.4929431618447156e-02 -7.8491853642630501e-03
      -2.8557895145103485e-02 -2.1223183710637292e-02
      -3.1679715394303858e-02 -4.8070319267205848e-02
      -1.1535081922106538e-02 1.4673577908792663e-02
      3.7065896410497762e-02 5.0926722836535830e-04
      1.4436507075860267e-02 -2.3524591031745087e-02
      -2.9219627115642040e-03 2.4804980690776562e-02
      1.6694799387312647e-02 1.8329775444778207e-02
      4.0272298554608676e-02 -1.0687529820043548e-02
      2.7557809704920583e-02 3.5289899785205907e-03
      1.5483585981882057e-03 -3.6633388605235684e-02
      5.6587216830182877e-02 4.0475379716253194e-02
      -5.8043837541891019e-02 1.7714674872745445e-02
      -4.5024668713857345e-02 8.2477490387630227e-03
      -3.3816522658372192e-03 -4.2800528178220200e-02
      -1.4517356249507670e-02 1.0973316875766153e-02
      8.1682858535885830e-04 -3.4110037172900176e-02
      2.9228256198068424e-02 -2.9670357330262902e-02
      -2.4792109192607766e-02 1.2816438402997841e-02
      -4.2160468717502217e-02 1.5907109043482713e-02
      8.3939202995279068e-03 -3.5691820782004023e-02
      2.9145337258156316e-02 3.6930593237305956e-03
      2.2653329198500632e-02 -2.0499246684388215e-03
      2.7749144983928411e-02 1.0088188936524295e-02
      -1.8878214978501753e-02 -7.3136385219219044e-02
      4.1008748469438819e-02 5.9103234085622278e-02
      2.2455231727829501e-02 2.5063727975053827e-02
      1.6530601031581792e-02 5.0786361861575723e-02
      -2.7058058847377213e-02 5.2790864230899008e-02
      -7.3256519137163464e-03 6.1907798862967404e-03
      9.6577726439994369e-04 2.5584653610314863e-02
      5.4287003824079562e-02 -1.9170220204312482e-02
      -1.1551867895690810e-02 -8.2128903611768476e-03
      1.6119279192854191e-02 -3.1518473531855731e-02
      -3.6049881624526116e-03 -1.9722485919386558e-02
      5.6181424980973955e-02 -2.3996580872904967e-02
      -2.5184906385931207e-02 2.6318609884757132e-02
      3.0243196278279441e-02 -5.2496649928910379e-03
